-3.805370002923842421e-01 -1.661737421628432798e-01 -3.217375290828587975e-01 -3.200617331860372561e-01 -2.592300438117407513e-01 -2.091756563991380991e-01 -1.786757037322782848e-01 -2.397992632318921291e-01 -2.759051237916239074e-01 -3.079843859104659520e-01
1.367803548421654691e-01 -1.111427822668711984e+00 -2.496530947441331916e-01 1.617056058722668721e-01 1.696552845400376708e-01 1.243877919035406565e-01 -8.264736003173487333e-01 1.376369760012438326e-01 2.390844995407764018e-01 2.083273325215447558e-01
4.850610983590064595e-01 -7.481458107620877485e-01 4.820229849774688297e-02 -9.021571967034990314e-01 4.680915672720153964e-01 3.372225090434410877e-01 5.641722095085391908e-01 -8.181892667166745792e-01 2.905924755055543374e-01 -5.077363133312616794e-01
2.816159691183098834e-01 -7.032500835748708434e-01 -2.756081549646476891e-01 3.098657136171603654e-01 5.231244579977613052e-01 1.303598270127022396e-01 -6.817232859633479691e-01 -4.455866955729589352e-01 -2.752831522416210319e-01 4.289191147392204528e-01
5.513718423461461127e-02 7.068275488233020931e-02 3.358704697944062123e-02 -1.226937855307865498e-02 1.807982842363832499e-02 6.521218450060820016e-02 3.769878978302002720e-02 1.668719431469747189e-02 5.001963630224323665e-02 -4.894759473354901025e-02
-1.100981578122504745e+00 1.820029076070953933e-01 2.738222063658838357e-01 3.627217780193486840e-01 -5.295351509987122895e-01 5.773619086418487617e-02 -4.385090712971865812e-01 -5.390788853019833071e-02 2.630684773387656494e-01 -5.228645148914722041e-02
-7.562519435084775754e-01 -6.715851165652193810e-02 2.471077358188044845e-02 8.948655954261261480e-02 -6.418531461834232899e-02 -6.264846284640170904e-01 -5.701763304040488589e-02 -8.727685777067539785e-02 -1.372378035069833913e-01 -1.962378460136761892e-03
-3.762247569061256125e-01 -1.445161897499381842e-01 -3.150705880397936531e-01 -2.842378694712497378e-01 -2.818866979284214147e-01 -2.267029889597032000e-01 -2.276703027109324984e-01 -2.476889319248468391e-01 -1.609872774504266801e-01 -2.274434773523442976e-01
-3.262623832802408197e-01 -1.389727457533524446e-01 -2.528402259579508593e-01 -1.743598933380101634e-01 -2.475973718104315380e-01 -1.254907214761871170e-01 -5.878987974549626516e-02 -2.790545441137467497e-01 -1.330031753580104559e-01 -1.349144997436027005e-01
-4.853198131055339593e-01 1.217821433505926060e-01 1.324332381333377384e-01 -2.619205096919005604e-01 2.240589373395748263e-01 -4.085865139260552725e-01 2.613691185181938326e-01 -5.780209535783967789e-01 -4.762661014909533308e-01 2.256811352773452906e-01
6.916819562597895099e-02 -1.112760844936497628e+00 -1.368059496621688576e-01 7.792595367401487783e-02 2.661329985863997508e-02 1.530764227031458369e-01 1.770907991280368798e-01 5.924461559533222149e-02 -5.535643098399187778e-01 1.693365766361115132e-01
-2.660788515122603504e-01 -1.104429390676884976e-01 -2.435400737918591019e-01 -3.025218052094312271e-01 -1.404449113396950832e-01 -1.891788631704910129e-01 -1.499241216545012800e-01 -2.102617185403257427e-01 -2.709268961254957531e-01 -2.795151580189342289e-01
2.811163298176708736e-01 4.307471302809663394e-01 -3.830570998506626079e-01 2.462273784779501762e-01 -8.994390837585320986e-01 1.859218899364814548e-01 3.173205013373818217e-01 -9.147162948284633943e-01 3.556482228735868834e-02 -8.284866406603150768e-01
-4.526039017181419100e-01 -3.529305188109837371e-02 1.238138440654692474e-01 -6.858383773626550717e-01 8.821590077632009141e-02 -7.157500385452091329e-01 9.783979887859996227e-02 1.314463643256112181e-02 5.044641136058766739e-02 -5.418960735480862767e-02
6.600435878880339668e-01 -4.857967892901892126e-01 7.538146033665448220e-01 5.318921945016146235e-01 -5.328909680005399219e-01 -4.012579591953750469e-01 -5.661764390157628668e-01 5.712195671884267023e-01 -4.841704252351751170e-01 -4.338014635151152820e-01
1.087558761213940073e-01 3.961613884104366323e-01 3.357481300116499923e-01 2.402370876546269796e-01 -6.879660671508246450e-01 1.953517836784077755e-01 -6.688596879804546980e-01 -7.545488711733611131e-01 3.966144716927843539e-01 -6.578593931935782235e-01
-5.056842104179034569e-01 5.661737868390080974e-01 -5.806027274736349497e-01 -4.972119886909373010e-01 4.653246943922164647e-01 -1.950683077420009570e-01 -6.879768685650323734e-01 6.009883224755354636e-01 -2.364867203160866960e-01 4.557415868806622972e-01
2.313373047701737517e-01 -4.239520805505583856e-01 -9.171393644657652722e-01 8.753329227742573382e-02 -5.045394331664992960e-01 1.105908273834649430e-01 -4.746312253794627845e-01 2.484835752981446322e-01 -6.815418925373875614e-02 1.810493772611153629e-01
5.578414402051600218e-01 -5.562370426945594248e-01 6.244510554531021995e-01 -4.681097627897908287e-01 -4.156020589428085499e-01 -3.645108861097712816e-01 3.384906133495426683e-01 6.247260723768851554e-01 -5.880622638554219295e-01 -4.143657064355484310e-01
-2.681937060798212924e-01 -1.507801495720006157e-01 -2.428458413362559187e-01 -1.467362917137873535e-01 -2.238390594772166342e-01 -1.799991810386475100e-01 -1.893276794929943663e-01 -3.140835819360282000e-01 -1.716326417529018267e-01 -2.441672869062326556e-01
1.225367467130303034e-01 1.087747712635161318e-01 2.767910096882457774e-02 -4.383720232027357722e-01 -1.829371216621550889e-01 -5.148994984844286193e-01 -3.673394837371684041e-01 6.426156418399592285e-02 -2.431951787345619509e-01 -1.639118818964320490e-01
-3.641178625216618947e-01 -1.671144667560824359e-01 -3.327321851130159991e-01 -2.500800085269118678e-01 -2.473416997051637867e-01 -1.881869505583904645e-01 -1.437988714068108853e-01 -2.047456943742246016e-01 -1.987377563973258265e-01 -2.847733171494895577e-01
-2.493514391829281251e-01 -1.526002608056999388e-01 -2.529655109010060521e-01 -2.703304675713390504e-01 -2.808967376321951925e-01 -2.823629372822249461e-01 -1.533070302003358976e-01 -2.349746342854342751e-01 -1.828691504744590912e-01 -2.780084931120341274e-01
2.884755596744548525e-02 -1.008493367456532452e-01 1.293910159356922735e-03 -9.393215946871195932e-02 -2.145681150412823146e-02 7.945128600654938200e-03 3.217545067070016335e-02 -1.288045283334448600e-02 7.589111943147630254e-03 -6.512636493814669136e-02
-1.732093267778001544e-01 -1.541009549939337531e-01 -1.903329331721140549e-01 -2.074679530527877291e-01 -1.039529448722371213e-01 -2.088436145515908948e-01 -3.580384080964135740e-02 -2.941230619810195068e-01 -1.382494509420767181e-01 -2.346851373564088905e-01
-2.856386986058620514e-01 5.933074990566099549e-01 -4.736324887157921659e-01 -3.832784214484903917e-01 4.364403487379264757e-02 -1.746383874389614843e-01 -3.724905833491532481e-01 4.717195952771589540e-01 -3.672567975012427377e-01 2.062297450943602062e-01
