-7.308639441664069314e-02 5.739386061217895824e-02 9.194753074346159391e-03 7.550758804785889788e-02 8.290204233009543233e-02 5.811298488937606532e-02 2.437732956653934288e-02 1.231139024397786066e-02 -6.169954509935778042e-02 3.211605384919558048e-02 2.480857142014881653e-02 2.669186006814209394e-03 4.006819248642063541e-02 3.476460743582845264e-02 -8.606459460415608054e-02 -4.678221510283568640e-02 6.121275845593623227e-02 -1.591354060368064746e-02 -2.144944827719743805e-02 5.452723809704892143e-03 -6.260888841787663923e-03 -7.333103842957616747e-02 -3.327904486549732727e-02 6.908358030498312936e-03 1.013469517034334619e-02
7.842157863508787685e-02 8.399146068208836191e-02 2.339828254718398504e-02 7.597294907248190732e-02 3.611795901949130250e-02 6.825192021381086549e-02 -1.498455320828197268e-02 -3.017273788481888291e-02 3.176864433170918656e-02 7.991030065852398889e-02 -7.652370454716755921e-02 2.709957147623578977e-02 -6.046911810979261476e-02 -5.801307056761602354e-02 3.621303354810728736e-03 5.075345090487722033e-02 -4.864128392732750689e-02 7.976663866085836885e-03 -7.551438093115547812e-02 -4.589292168022306856e-02 -5.778885509020912498e-02 3.534878743189716344e-02 1.128863674526874028e-02 7.457922250967601030e-02 -4.549885299046401571e-02
-4.793873930826472035e-02 4.265963702371346200e-02 -3.107428566874145121e-02 -3.564589660801078391e-02 -3.883822946140428473e-02 7.354153996777677837e-02 3.416904790485134069e-02 -3.307600841059071123e-02 -5.722129088084702137e-02 -6.984924009767590203e-02 7.332463587078869027e-03 9.808270519464631909e-03 7.261169321072767635e-02 -6.798044017872499623e-02 -6.029842043198448132e-02 4.784969388996002104e-03 -3.846933423753989140e-02 4.457828657714980880e-02 2.889142473935388256e-02 -5.186683450561405118e-03 -7.116899621635111584e-02 3.456322614965859352e-02 -3.836018544749494191e-02 2.125053686763443694e-02 -6.832862153814558970e-02
-4.777382566064582170e-02 4.205817430569529225e-02 -1.195566572336778655e-02 -6.787975852223687712e-02 8.518563586097248341e-02 4.016584530979312728e-02 -2.745984952812405983e-02 2.162935432822796211e-02 -5.318858731076568647e-02 -1.857051939059964352e-02 -7.582976607387814649e-02 1.929750087673147430e-02 2.505959963404288948e-02 -4.638815520096676442e-02 7.059190380334638693e-02 8.315121466495838110e-02 -8.173271078480119634e-02 -4.670645461917430352e-02 3.529842387811442384e-02 6.301521085337079275e-02 -1.489748680545677217e-02 -2.542611495363270024e-02 2.872445235989073975e-02 -3.584828593627797932e-03 -2.422157271357043562e-02
-2.862250134628560594e-02 6.373530671324371955e-02 -7.656209458967402903e-02 1.019284104874013108e-02 7.677360494704053850e-02 -7.434487065977966880e-02 8.152064864053217008e-02 -3.164175213301104184e-03 -3.902660921233225277e-02 -5.033031873856732424e-02 -8.128921698135449514e-03 -6.410189737639829244e-02 -5.386498376929726994e-02 4.479220732667350824e-02 5.897058916194618250e-02 -2.205217246458482383e-02 -2.227147110988661471e-02 2.178099850888007283e-02 -2.875318897431778514e-02 -4.566978831683779494e-02 1.852487021727741712e-02 -1.645153969276336170e-02 -3.267807754832646044e-02 -5.149100686743068866e-03 -5.218554111544576601e-02
5.995986020894590596e-02 3.593287343395160094e-02 5.403331020384009864e-02 4.597350546101618141e-02 8.428297788420395509e-02 -2.892334534010330971e-02 -4.535399063454802204e-02 8.127316294588245171e-02 -7.676960755191995778e-02 -5.988496926553552729e-02 1.200334940012391660e-02 -2.286520375445165454e-02 -8.540444983582225202e-02 6.444394477325461612e-02 1.779636582978988413e-02 -7.513204081488067398e-02 -4.598787198387522396e-02 -5.789453809596838141e-02 -1.696737339402416833e-02 -1.877643816766626228e-02 4.551569012722060659e-02 -6.931208840453917386e-02 5.655149973687732812e-02 4.212879694437605960e-02 -2.301704009747959634e-02
-6.434896527376250674e-02 2.430379686187629507e-02 7.156059196500309805e-02 -2.234336583752453975e-02 1.780401524121150159e-02 6.588257969703993633e-02 2.523871589916359959e-02 -6.850655337057706684e-02 1.901253496806971921e-02 3.338723265788502703e-02 1.517401911649107760e-02 6.014965990245048355e-02 -5.421204832530419210e-02 1.868612160798838184e-02 4.442835762858908522e-02 3.126950303404461839e-02 -5.064968351401333974e-02 -8.963723029116299479e-03 3.714827384826710488e-02 3.619327863171602211e-02 -8.694363419582865071e-03 5.564478997763404322e-02 7.744109901975708421e-02 1.661769317019447245e-02 -1.951140923243625813e-02
-7.110879549036477898e-02 -3.447286474177287813e-02 9.585160829528524551e-03 4.197179900683449538e-02 3.923817469578015638e-02 5.885771728982580608e-03 -7.647630538925154209e-02 7.992518688451448472e-02 7.906615059924469724e-02 5.361640302044569373e-02 1.646821403453090082e-02 -2.212431876325411662e-02 4.112307406655094089e-03 4.211746515915905376e-02 -4.660032572228636760e-02 1.608639004671146011e-02 -5.004319566323470886e-02 -2.836156746702129389e-02 -6.548146166330150175e-02 -7.720955228006026738e-02 -3.495381964322901575e-02 -7.483790044991565915e-02 3.307002346007149873e-02 -7.768362143627828564e-02 -2.904738571890774085e-02
-7.260284584105601569e-02 -1.970825871236994709e-02 4.056014999978573010e-02 -6.478505021972068290e-02 5.340811520672957002e-02 -5.900620690038326649e-02 2.956698908182382735e-02 -6.973550325330414579e-02 -6.870969998162890224e-02 3.236753936740752180e-02 3.061688429820852431e-02 -8.328397127328981964e-03 -7.899563776687373862e-02 8.584717823272379478e-02 1.110612867546817428e-02 5.726851733399267175e-02 6.997409531334487787e-02 5.517947564234108870e-02 6.800490677950271623e-03 -7.022313211521684362e-02 5.490977131179509974e-02 1.682188209643177557e-02 -7.934142836484542327e-02 -1.712478410392073713e-02 2.369145933498255363e-02
6.540776231413918118e-02 1.855320923541055322e-02 -8.252243202039988290e-03 1.290673112116252907e-02 -2.282194036779153223e-02 -5.065401709748344750e-02 9.086309151556726249e-03 -9.755588216730559648e-03 2.218554266263635111e-02 -7.417682783708934302e-02 8.186704021135655929e-02 7.456590548038159738e-02 -1.868545535130468338e-02 -1.568069971177379895e-03 3.796433947721479518e-02 -3.594581938100013807e-03 -5.923380598098645228e-02 4.951505677268065730e-02 4.833444943017760342e-02 -2.155953504224258910e-02 -2.577547425187482616e-02 4.647665030331575575e-02 5.408095537502773109e-02 -3.446833525080288813e-02 8.287644029274517099e-02
-4.638268422940781954e-02 -8.127131046485384924e-02 -3.532733937787473077e-02 7.921640569666145437e-02 5.981346042587788736e-02 -6.431430903305512814e-02 8.558444997654147957e-02 -2.230981874768045436e-02 5.377198894217431746e-02 -3.436197522518073116e-02 -8.461161714551714008e-02 5.483649862081134418e-02 -3.228936638415643573e-02 -4.811466643945289806e-02 3.939834514276600863e-02 6.350348892757616548e-02 7.092504382950594322e-02 -1.599754716875105565e-02 7.147389795904578180e-02 8.416433057496518211e-02 5.923217965678330421e-02 -8.295979752158892662e-02 5.861076452682185967e-02 -4.707403043228988032e-02 4.296699585406492383e-02
-6.715138212121958550e-02 -4.124365125915019359e-03 8.321165329503919794e-02 -6.747698796141360367e-02 5.481701179203378460e-02 -6.198395267546202847e-03 -7.602058745877354751e-04 3.002037207383005668e-02 -4.753478780630012585e-02 5.442683571210622795e-02 1.582124014835215031e-02 7.151665918882586792e-02 2.254341789671571172e-03 -4.664906657271745277e-02 5.337277316503420688e-02 7.695416819300511524e-02 1.316294950658464247e-03 1.979552769275653989e-02 -4.322486098136554822e-02 3.257516287453060544e-02 -8.307262168662477020e-02 -4.428760519714181748e-02 -3.385159910672799061e-02 7.714831212530469384e-02 3.540655430326161701e-02
8.215001837571243859e-02 -5.058685391903857548e-02 -8.295176965841563610e-02 6.544665661990393957e-02 -3.255507585659701830e-02 5.115634419109839348e-02 -1.958119563652925554e-02 1.743687069266169898e-02 -2.463174997398884236e-03 1.663671717836012753e-02 -6.337369246918578281e-02 -2.430608136939615277e-02 -5.889089444127835332e-02 3.338708778041539482e-02 -2.488599082345584884e-02 -2.682143588948596169e-03 -4.262623412298435777e-02 -1.731309919935902775e-02 2.515010759401471729e-02 -6.158523622111861107e-02 -6.980686477413794444e-02 7.839434254522516243e-02 2.034759317070743145e-02 -7.505802387943187604e-02 -7.608512703146586009e-02
4.481472343125599694e-02 3.600175169407621861e-02 -1.475771335864047365e-02 2.152611068695872015e-02 7.307167795509594832e-02 2.945362687889313547e-02 -6.016355681237112174e-02 1.488582182416625654e-03 -6.942963991965052373e-02 -6.754355686751885302e-02 -3.294625991665617315e-02 2.189916360562018174e-02 -7.909609973045364506e-03 6.953276197663901814e-02 -4.453412586071563151e-02 -5.543607044250534188e-02 4.820342904413673496e-02 5.857151422593668416e-02 2.640170324203602176e-02 -2.355529170098463743e-02 8.211407619089468313e-02 -2.418217310041903892e-02 -1.332596585310946713e-02 -8.178557983901496228e-03 3.603328686049571405e-02
-7.076528261401306141e-02 5.172612291161899495e-02 3.879294907449040708e-02 1.908512882335068953e-02 1.665360035513723663e-02 -5.624972506027217656e-02 -1.259632121258727824e-02 3.662721299991872348e-02 2.562171632903932628e-02 -3.102672027239528757e-02 8.363284621820227249e-02 4.116101282331807026e-02 4.654023064657265840e-02 2.091459005506376978e-02 -3.505626546737198451e-02 8.183543974783516473e-02 4.490378532416396118e-02 6.772124652352171092e-02 -5.659731135891998832e-02 5.392468051313832611e-02 -5.362034545967113430e-02 4.753725450646033301e-02 8.559849312333669968e-02 -8.293550626634826894e-02 7.181484624119555127e-02
-6.094699262773708992e-02 -2.495900011700244100e-02 -1.968965514583343943e-02 -8.068090315330293805e-02 1.627148455847647265e-02 -2.679883062538659239e-02 -4.935863708112515902e-02 7.397229214651478146e-02 5.027135100764497377e-02 -7.713298188174995407e-02 2.684419372249075009e-02 -1.488357814150179266e-02 -4.758423994458749889e-02 -2.853557008917127075e-02 6.801942488572353118e-02 -7.233262314097214929e-02 -5.724038036054742568e-02 8.357758438597641393e-02 -7.718830345473140508e-02 -2.215546637087225171e-02 7.232883037331742926e-02 -5.499539035862813230e-02 2.057649432037967144e-02 -4.616328135000715566e-02 4.515740945259520689e-02
-6.997052422001022454e-02 2.970476718697449489e-02 -3.606266920207677751e-02 -7.344104391835193368e-02 -4.056007127674725321e-02 -8.064659259232558053e-02 -3.733547493959773339e-02 -2.816736300815426280e-02 7.527463219155682006e-02 -6.985944953642833632e-02 6.702090513510937375e-02 -1.186779524184103894e-02 -2.942339213233551715e-02 -5.705524254277292290e-02 -7.693952589286562338e-02 5.517421656535066721e-02 -1.717310813323712909e-02 8.189793104180574657e-02 1.257121481722272248e-03 -8.229222608430929176e-02 4.804773603432413442e-03 -3.953717007269945405e-02 -6.309620823690018088e-02 -4.622330425743108318e-02 1.447367129613222336e-02
-4.690812781107428497e-02 3.603608313653339223e-02 6.665406487920273737e-02 -7.596096441010975753e-02 -4.611729893150298687e-03 -1.029149204793455841e-02 -6.428535076174138330e-02 -1.780349927624896855e-02 -1.378020233120143268e-02 2.043502881228363710e-02 1.223398610627599026e-02 7.393407088844509978e-02 -7.357232756254158956e-02 -2.109351658198597990e-02 -1.502116682490635402e-02 -1.073086679663239063e-02 6.551021179389478200e-02 6.012788176856798117e-03 1.570581668550118104e-02 -6.177410252486417730e-02 -5.264887508070896505e-02 3.492928995196803443e-02 -6.322837676230652626e-03 7.134190975841146753e-02 -5.019876704497711756e-02
-1.776082782820224970e-02 -7.476348043877004135e-02 4.593143280576666987e-04 5.581938363933665326e-02 -4.308834508301222915e-02 2.491547308008354444e-02 3.611023015395189995e-03 -6.489435646564126192e-02 6.017920828586199866e-02 1.365880642113864729e-02 8.350229237082798517e-03 7.302516174614553934e-03 2.822702639503256450e-02 -5.460836458690938172e-02 -2.880948104252112341e-02 4.647623047842645849e-02 3.821901159434352990e-02 -3.424661591173813746e-03 -7.538160123895554232e-02 -3.017556857845118956e-03 -3.967767861468362439e-02 4.519585277210970420e-02 1.491065941228206237e-02 4.629196462088064346e-03 6.731226407588968008e-02
-1.710535760219031309e-02 3.500144769165933201e-02 -5.684247375150386361e-02 3.372112585695845322e-02 -7.587410343131308077e-02 3.799750859247744139e-02 -7.704867892346715930e-02 2.257913228534294547e-02 7.146540855182320628e-03 6.094419015699639730e-03 -8.218216603560202227e-05 -2.632322754704526785e-02 2.692941723429015388e-03 -5.352215694548362324e-02 2.995834523760171342e-02 -5.602028959188669333e-02 2.186897477682613056e-02 3.315325033389306120e-02 6.675111368491333519e-02 -2.129950714040260151e-02 -6.227600262116815555e-02 3.272377337781907924e-02 -1.400037188653255327e-02 -6.416193943507328412e-03 -7.635772597497302028e-02
6.276087169413395450e-02 4.260236173643282276e-02 -8.193856941120220005e-02 2.360430785114255026e-02 4.147017319769998045e-02 8.509578918013542548e-02 -5.507937951859406822e-02 -5.417220908009172387e-02 5.917811596242884831e-02 5.162735712211707906e-03 -8.129000626045390643e-02 4.942707628553298649e-02 4.439925853381958276e-02 6.488663380121649504e-02 1.769735098092785341e-02 -6.309233192988403238e-02 -4.225027597702360471e-02 -5.383533744698871387e-02 -6.076471776447008033e-02 -1.188921996686780058e-02 -3.786140822466609740e-02 7.734849551795151823e-02 -1.534477582375737281e-02 3.205860563627223325e-02 -3.814149669364893386e-02
2.907566841717480755e-02 -6.184602818740534552e-02 6.687348436528263440e-02 -6.601122701310900565e-02 3.064161532240064489e-02 5.070086129343552572e-02 -2.516528411251693631e-02 -8.587353180389568907e-02 2.434044630456637381e-02 2.963903745251253441e-03 -5.629876653734372516e-02 7.534180391058330206e-02 -8.126733909287128799e-03 1.258228088730189986e-03 -9.440723021992530883e-03 -5.372376668158748009e-02 8.018288490640516908e-02 1.791719775931265024e-02 2.828319621143535190e-02 3.971330612313091202e-02 -3.964812970216458760e-02 2.895471111366813843e-02 -5.556834016606383708e-02 -5.521111669965851620e-02 8.039973823046887846e-02
-2.016710138445691747e-02 1.668328520895726030e-03 -7.978337516000871821e-02 5.765706575377575749e-02 7.461612881364529382e-03 9.743164914258528597e-03 5.509585165706039345e-02 -2.703290435646724110e-03 -2.593182786782985416e-03 3.560119154556881660e-03 6.436703167984840490e-02 7.618339022935242955e-02 -5.102133320580411885e-02 1.150234014995639431e-02 -5.329641387307744449e-02 5.760858815832632651e-02 -6.626274345245437847e-02 1.695173300851179898e-02 8.358438782990156024e-02 -1.388193891088748688e-02 -4.098703214364977226e-02 4.388688701767536060e-02 7.805606193719454022e-02 1.975078299723845299e-02 -7.412173793859505588e-02
-8.320400571995613392e-02 5.600399850358130094e-02 1.085059609765899602e-02 -1.723842517418677778e-02 -1.695446642424132400e-02 -7.360726119995583683e-02 5.082325544633674308e-02 -7.016184022688570776e-02 5.344310581247414815e-02 2.206049250829669739e-02 -9.612247598491524547e-04 -6.856318955684591321e-02 6.936895523899742899e-02 7.201851893046033737e-02 1.718829199475864489e-02 2.068659067928535489e-02 6.766660208765894191e-02 -4.632066653967803482e-02 -5.083404228737007507e-02 -8.688416012851113424e-03 -1.843549958944924738e-02 8.090827009140848236e-02 -7.494281539656816316e-02 8.227494605592190757e-02 -5.285376003579355525e-02
-3.189590969414188293e-02 -8.068412455707553443e-02 2.525097286100821958e-02 4.680563999750704529e-02 -4.333358024677574916e-03 -1.335856145311381526e-02 -1.760082694891348942e-03 6.636710068091437875e-02 5.039842919614163919e-02 -1.254489932828563303e-02 4.011087009546439319e-02 -7.292526132428375774e-02 -8.165313179727962112e-04 5.386683220138031858e-02 2.891751735886474717e-02 -3.450558404258777939e-02 -8.475652858670126855e-02 3.346264797429220061e-02 3.242257644556095775e-02 -5.478063275938327426e-02 1.887032866886143023e-03 5.171832221099885440e-02 -9.317411255559862604e-03 -1.368813793262102507e-02 7.155523165322359713e-02
-2.036619938134701102e-02 3.038076060351016516e-02 -7.480373006004625847e-03 -7.655902591234695076e-02 -8.495823596260054789e-03 -6.500484537059442181e-02 -8.435676063038963224e-02 -2.972032598368961470e-02 -3.135454684453775620e-02 4.727478102832867457e-02 6.853134262057240800e-02 -3.311976472540278937e-02 2.628536583366808399e-02 -2.667086905868178842e-02 6.200180272342352417e-02 -8.576832846322723913e-02 -8.268845287512287257e-02 -1.826378935963955674e-02 5.477037652641993104e-02 -7.006233309391497743e-02 5.710932427231955877e-02 1.271656076676373759e-02 -8.598504089617882429e-02 -4.973540769086900321e-02 4.774670430062687154e-02
1.825129217798163173e-02 6.859610128885344771e-02 -5.911817430638281745e-02 3.679025894867495039e-02 3.099052776070285176e-02 5.393461682804341628e-02 -4.730576494797567727e-02 -6.133624187942129935e-02 -5.800729525334248626e-02 -6.884352324981003746e-02 -7.794894478908843960e-02 -7.460307936226567849e-03 -1.592688269309185112e-02 8.123879579136016049e-02 -8.579904919270742170e-02 -6.215800539747823317e-02 1.298788707533266029e-02 -3.068667048797103086e-02 5.962053485556258192e-02 -5.007771286074904488e-02 6.175673714193556652e-02 -7.390462958579374630e-02 -8.159132140492483809e-02 3.403665911995215621e-02 3.385137684993368146e-02
-6.261280581094898212e-02 3.032273214589674415e-02 -3.863839071586869234e-03 5.304692213191521122e-02 1.108163234709864942e-02 -7.530873376191751789e-02 4.732769414128326635e-03 1.394109629207024303e-02 4.652368783564590771e-02 7.886048906228497468e-02 7.848801728825134660e-02 -3.120234963400761452e-02 5.045474406747992024e-02 4.095563703203623784e-02 -2.595077727724284800e-03 -4.238578956988718616e-02 5.014932152775360141e-02 -2.043648011470292070e-02 -6.047815335335599701e-02 7.094091560072333935e-02 -2.554956964673351510e-02 -3.766751098093849837e-02 1.020070860054027306e-02 -4.811715568026018325e-02 -4.106950204851539388e-02
-5.173239436515278400e-03 -6.447384635779908335e-02 -2.731995565357463185e-02 7.331760573168095985e-02 -7.757756306149400649e-02 5.901586559800442444e-03 -2.881187731829513293e-02 -6.873572372354397331e-02 -1.537977283097835546e-02 -4.665564695262247596e-03 5.977770144880341363e-02 -4.617610714945706574e-02 2.062209142357063207e-02 2.650847387910849895e-02 -2.913813305989958885e-02 4.876117754243004809e-02 1.063978696098172305e-03 -1.641132635891520697e-02 6.500771149088972745e-02 2.224445236588880326e-02 2.784507089915164157e-03 3.193307211629482778e-02 6.769043593657432523e-02 7.726482846752009970e-02 3.866718745877001373e-02
1.173704812604799141e-02 -1.862570505659702502e-03 5.808007783621522979e-02 3.882825539080769772e-02 -4.747785941920095593e-02 -5.423080480582622570e-02 2.953075672266425311e-02 6.975595509718234000e-02 5.321322659308501402e-02 2.630005612313565666e-02 7.259757410401744548e-02 3.413970329803688031e-02 -4.806585682033537310e-02 -8.277084167017620397e-02 -6.878027486361282250e-02 1.658850895591880426e-02 1.126563273526134945e-02 -2.313852118036445471e-02 -6.594786480270212192e-02 -3.746196216684316571e-04 -3.289826682458112106e-02 -1.703517421188242842e-02 -4.700008552581462495e-02 -1.993069166621086463e-02 8.315608308967274709e-02
4.978232302436609580e-02 5.417235581250041954e-02 5.653255198413094373e-02 -6.392510430925640863e-02 7.960657100779659767e-02 -5.348519249758255933e-02 8.015266067985664378e-02 -4.192916717658243253e-02 -1.051598741344665633e-02 -6.892461123146476076e-02 4.060806071065124756e-02 4.480022017789679623e-02 -4.230294672861750066e-02 -1.298754579448975488e-02 6.210130993355363060e-02 1.237993739503388813e-02 -5.265145304065568799e-02 -1.674634528458049387e-03 2.602702407791063210e-02 -7.693559155463662591e-02 -1.186386053283068620e-02 -8.511270864805839387e-03 7.993421338204732829e-02 7.782796948022337180e-02 -4.754310893367049567e-02
8.587268347061392804e-02 -7.915053022020086815e-02 -7.013930637562984516e-02 4.377563326189388981e-02 3.208096401968420219e-02 2.598292610213775999e-02 6.230201180538937067e-02 -3.799768650968635142e-02 -1.054150802070207005e-02 5.029455579634574403e-02 6.882457661932157855e-02 1.058230953457228729e-02 1.914019015141571467e-03 6.814233234459386723e-02 6.669874571120164297e-02 6.468173463176944693e-02 7.968344752357743588e-02 -6.535718673129779777e-02 -5.615325346444807741e-03 4.073720879434560016e-02 2.152801792183534069e-02 4.385642287790432470e-02 -8.543177832606907440e-02 4.920863383719033257e-02 -3.929316744913137482e-02
6.657485492410288030e-02 3.870488034769500874e-02 1.106230498082827474e-02 -6.185314434087117730e-02 -2.695563845779042761e-02 4.605686754506797820e-02 4.043189023812580885e-02 -6.944914494355394763e-02 -3.997693962237550136e-03 -5.793027028921093891e-04 5.886378394412521142e-02 4.830703959781103285e-02 8.292854448224119823e-02 -8.196878854083197719e-03 -4.687909407845830545e-02 2.696727958301887995e-02 -2.503841066719179193e-02 8.606346164348438466e-03 -3.515324224805309317e-02 8.085599924818616391e-02 -6.890819229078284924e-02 3.066288998588666270e-02 8.546511621962936400e-02 6.997367750664316988e-02 5.452198898492179036e-02
8.235988024635461369e-02 7.428557156941549555e-02 -5.757118588205418358e-02 -1.935976613720701012e-02 -4.020438525588885398e-02 -6.127930917685553425e-02 -2.477209491659425333e-02 4.838669223741300096e-02 2.047358469715941653e-02 2.959750094673221574e-02 6.073470311874205885e-02 -5.728049225210109230e-02 -3.818145510328663228e-03 6.006235698074656459e-02 -4.351231441831573260e-02 -4.472264778694335502e-02 4.160237982095429249e-02 -5.241846552125264957e-02 2.342487609915099023e-02 -3.444055578744438517e-02 7.168976114892255946e-03 -4.508737124696080706e-02 2.525446145911703841e-02 6.533491523457125860e-02 5.349714790518757257e-02
7.465424742936138669e-02 4.181028752032692197e-02 7.574006981430982111e-02 7.591649471074769784e-02 6.634073209547185213e-02 1.216089527291673578e-02 8.178353619646812345e-02 8.066132546379876922e-02 -4.604147974068611288e-02 4.192128905398267297e-02 -7.639429945415604495e-02 4.309651208912573112e-02 -5.215261470848362585e-02 2.808281030712887413e-02 3.556797896779257621e-03 1.132513895325677755e-02 -2.603440580388265146e-02 -6.717436098410282941e-02 -4.926101147669059710e-03 2.582931661424889280e-02 -3.351525011914491259e-02 7.861613761868622985e-02 -4.680816920857698571e-02 -2.307624303380112485e-02 -2.131512086493464811e-02
-1.371140674635883301e-02 7.346384223447277595e-02 -1.350372375655580805e-02 4.188581589980529263e-02 7.259811972662617852e-02 4.168156371134039417e-02 -7.307100779583931838e-02 -2.099851829811160558e-02 -6.138404050233896986e-02 -4.079772944943440074e-03 -7.985595193072483888e-02 5.140261183069809447e-02 2.701171154086378853e-02 -4.421387694165071491e-02 3.452980577899053549e-02 2.588984800062958669e-02 2.029323925724332237e-03 -5.967975245899370673e-02 8.062816167370882858e-02 -2.079045766766596248e-02 -6.547358672851173733e-02 -3.023381419758913030e-02 -1.455278189804840028e-02 -5.014119087481366810e-02 4.815972810933859954e-02
5.108870794191219117e-02 -6.338041072786604335e-02 -5.850786548057514830e-02 -3.549309569848266982e-02 -4.914961490903608371e-02 5.844128561773562908e-02 1.672546140689669045e-02 7.349131340494399235e-03 4.972008861985147826e-02 6.197105320388708594e-02 2.518170815392311527e-03 3.743520373232421278e-03 -1.588638061926375342e-02 8.471978855074539794e-02 1.071730721083505831e-02 -8.069145085586326704e-02 3.878203549940644618e-02 -6.818082346995310572e-02 -6.043038436777050521e-02 4.662818776365548756e-02 -4.167023550713296054e-02 6.269925445581533974e-02 4.276727391143669843e-02 -6.146333538926602308e-02 6.901719610309577091e-02
-8.289155424452783472e-02 -4.986690047633096255e-04 -9.891924147877213802e-03 -6.729207858765579031e-02 -7.049012886136170331e-02 3.112841952839879092e-02 -1.896907090553778125e-02 6.409014900936396697e-02 2.179757820898061554e-02 8.814340513503623889e-04 -2.249806659124540392e-02 -4.826027697635899144e-02 1.062502273902622522e-02 5.908877332291716244e-02 -4.230408201387247935e-02 -4.664307867857829526e-02 6.715098920902966284e-02 -7.671148726707800736e-02 2.028264301604331202e-02 6.115284514744898786e-02 7.549464454380001854e-02 -1.081669587357362780e-02 5.047341224386846237e-02 -5.808611112133077459e-02 3.484607388663806676e-02
5.010480766394628804e-02 2.182469674568706872e-02 8.385036449966726257e-02 -2.331996509184470871e-03 -1.165027714061960505e-02 -3.654432279348207319e-03 3.979819414152348245e-02 1.365998468399339839e-02 -5.915683954606566070e-02 -3.641397410120074830e-03 -3.032836916553309503e-02 -7.838031411880361232e-02 -2.106221732049096823e-02 -3.941659832038479222e-02 -5.129801615621791544e-02 7.400387516154709709e-04 6.011290166032853821e-02 -8.516909219368781758e-02 -4.523551212794509058e-02 -2.073213890921967242e-02 1.713881603879020485e-02 -7.518947528444669404e-02 -7.172344495476017101e-02 -2.088055293333964529e-02 -5.994250151563599444e-02
6.543736229441250371e-03 -6.864233405835978852e-02 6.105032878645076655e-02 5.992666979642406744e-02 -6.358798367874690660e-02 2.555974014216371056e-03 -3.046733322519856041e-02 1.038938942740408669e-02 4.850015828689744485e-02 6.025487652832192675e-02 -4.953578857898584958e-02 6.408094762076921302e-02 4.739592011118007320e-02 -5.478814767184407575e-02 -1.068002719723061544e-02 -3.658492766426833798e-02 -2.568390466771498445e-02 8.404194834249317791e-02 -2.615013191648333374e-02 8.117552743621303524e-02 5.938127480939450059e-02 -1.435188071316139194e-02 3.127708726152274993e-02 -6.027770937917444061e-02 5.099900711683705984e-02
-3.626816395834327189e-02 -3.068166198370529327e-02 -5.876524175027968838e-03 4.307566881911065182e-02 1.173224755877504827e-02 -2.529076123826992997e-02 -6.869389166607726971e-02 -7.277802640437143478e-02 3.869079082485573501e-02 8.207731018760683339e-03 4.649353643187231072e-02 7.677793696571276472e-02 8.583988533259159781e-02 4.123902939313295324e-02 3.309125376236379118e-02 -1.232839388345505823e-03 -2.817233652402283822e-02 -8.017540106045088766e-02 -6.764803987379376833e-03 -5.279106677982189216e-02 6.373648858079408730e-02 -6.200030474340775810e-02 7.811660883965303170e-02 2.006079555943669074e-02 -4.909580857200028167e-04
4.019632600086484736e-02 8.511276526330643910e-02 1.191125333934697945e-02 1.561931188817419075e-02 6.583891050304793886e-03 4.192942076142929658e-02 -3.958940130838831117e-02 -1.435037907907746497e-03 2.060203754616813862e-02 8.201200438049544017e-02 -1.090782673205999143e-02 4.971325310181233526e-02 -4.769438683974681209e-02 4.052229198814496190e-03 -4.828154306630410425e-02 3.377027491145878635e-02 4.678847133410529019e-02 1.505282142077771397e-02 -5.080485630932066177e-02 -2.155780157919755594e-02 2.556743569033153099e-02 -6.014010318767006036e-02 -6.266255455206855285e-02 1.127269647468938027e-02 -2.981182634706025514e-02
-2.071127738560333068e-02 7.025391529945590463e-02 -3.953542321792215958e-02 1.900571692650894528e-03 -3.279676797704339508e-02 8.483916074537127539e-03 -3.195040738005586189e-02 -2.820065512416557521e-02 1.627184346399017725e-02 6.590481403090676926e-02 -9.067320560129783075e-03 -4.898736803739557610e-02 6.442197997269907828e-02 -5.222411502301098352e-02 8.004850644359420841e-02 3.633157523267301070e-02 2.180731543705055966e-02 1.394185156963711862e-02 5.499006690918661986e-04 1.569341872951897365e-02 -4.495952283541923555e-02 -6.230318079384283315e-03 -7.099025050431122252e-02 -1.572083861898741081e-02 3.107236156986028022e-02
1.819293640225929515e-02 -8.084246063183754549e-02 -2.678493535127825231e-02 5.245602385753873886e-02 -6.757249082233653115e-02 6.417890041773065789e-03 1.098391641593399019e-02 3.022521912209950607e-03 1.361574942991637324e-02 5.223330159579075288e-02 -2.808910759133189869e-02 -2.366985459791485363e-02 2.989353570600203000e-02 -1.273889607249391841e-02 4.130989969948914431e-02 5.068580877902119364e-02 -7.574380137282131324e-03 2.191654587182684591e-02 -1.709710912710449976e-02 3.394601840463357112e-02 -3.634588347221687221e-02 -4.786446656808285988e-02 -2.224045281773888091e-02 -8.396714502453947373e-04 1.512746578967608287e-02
-2.810499353075083043e-02 -6.448450007312442334e-02 -3.449608582878187224e-02 -6.334602662295429898e-02 1.446330489941938767e-02 1.399281539910536901e-02 -4.714317037792131737e-02 5.769190750013807045e-02 2.709968945360301945e-02 -6.377108106162440726e-02 3.928173216300975129e-02 -1.679761162340857178e-02 6.460549591369750544e-02 -5.870352848382313915e-02 3.839386864563993501e-02 2.166348709947766779e-02 7.038935479679082896e-02 2.238170382669125297e-02 2.273408368722100448e-02 -7.092819967584096386e-02 -6.449851260916517059e-02 3.930036706810354635e-02 -4.800381390020504874e-02 -4.806957382418947100e-02 2.728283008473478960e-02
-5.445041437989189825e-02 5.695883840133651559e-03 1.040605402736525208e-02 2.883739859084213583e-02 -3.923431484801951502e-02 -4.772632656600996753e-02 3.237420131850714949e-02 7.345664538650038822e-02 5.470621847890738687e-03 -5.701109149787821073e-02 -1.005730687455357909e-02 1.960535082519430320e-03 2.867813259072771875e-02 -2.371142851992574449e-02 3.585429236167086975e-02 6.954981806618454332e-02 -1.288899545093635801e-02 -3.622264115066877073e-03 -5.918897984996404626e-02 -7.197353011196698513e-02 7.856084352332358411e-02 -4.593249174691649284e-02 5.597838402208370201e-02 4.628034643249431812e-02 2.241118675559434364e-02
-6.919863279894544750e-02 -6.009010080945414306e-02 3.079644675946755991e-02 -6.360893338291774557e-02 3.398040984456381780e-02 -5.897384387377145598e-02 6.484471021555171522e-02 6.748963039756823712e-02 -6.800878707566226922e-02 8.279748251520943625e-02 5.801424122257885924e-02 5.148759337055390517e-02 1.135807866116769586e-02 8.388183688336785238e-02 4.579144976733457578e-02 3.033618929981205317e-02 1.157708795525122861e-02 -6.656738104836072700e-02 4.554799160317102996e-02 -3.423920560695461329e-02 2.134717388201869473e-02 -2.745819484751719271e-03 -8.559539072544466998e-02 -3.313177753473520865e-02 -3.034526236258415846e-02
6.534258977828376336e-02 -6.856389730529910409e-02 -3.733632554365722694e-02 5.375273976663807324e-02 -3.108573433570404471e-02 7.824915472254344306e-02 8.969644019541008276e-03 8.282637899531476722e-02 -3.404587015854985965e-02 -7.807002814634882160e-02 9.168738980897886415e-03 7.133990617819720159e-02 -8.886843944699227005e-03 1.621744042248484188e-02 2.573672959159823206e-02 -1.209088551576068329e-02 -1.978007240791998869e-02 -7.613992790296657265e-02 1.406773846961792244e-02 1.300948633312896258e-02 1.264057935319849030e-02 6.018845859354660793e-02 7.675322534282759401e-02 -1.689893231153423783e-02 1.199757784488869432e-02
-8.071218143137409706e-02 -1.447367539828610036e-02 -8.374362869733868731e-02 1.353366618934227598e-02 1.383878370441091491e-03 -5.682132979408707069e-02 -9.682881332192996154e-03 6.910234285295710488e-02 4.365483411332145985e-02 -1.913148649008403201e-02 2.563679643408765807e-02 2.916225080037398651e-02 -3.973703202961523934e-02 7.550034688145100537e-02 -3.482012763546830231e-02 3.515758715095417680e-02 4.113882086637195984e-02 7.804866414599510860e-02 9.949289638320490264e-03 -9.558153618394918394e-03 -4.652453607859322743e-02 -7.442508141360281576e-03 -4.381900853675754770e-02 -3.737125794519259581e-02 -5.499671643034764051e-02
3.085526983434851850e-02 6.099263278817750045e-02 -4.976365364339324637e-02 -7.960958131010635597e-02 -6.492450389416122569e-02 2.086110245066192387e-02 -7.136457247742135357e-02 -1.071043127349906310e-02 9.104991471524884888e-03 4.569897362839392407e-02 -4.885668624935569221e-02 -3.416456437709784050e-02 1.470213515598695585e-02 4.399136104887044207e-02 -6.826914222331673110e-02 -5.213507511722816762e-02 -8.223240164740885927e-02 8.262088765780853383e-02 -1.510839948753188574e-03 -7.310606067608264869e-02 -5.760588495711178175e-02 -2.360687932198789196e-02 6.616670274707056598e-02 -3.377144922296580754e-02 -5.619880956327657356e-02
7.739288833120640254e-02 -4.662973530576301762e-02 1.845357919618911477e-02 4.513800296427875752e-02 -6.634803430861527240e-02 -5.016547540403050454e-02 -1.468872475930900652e-02 -2.127722286805093857e-02 -5.762325585762266555e-02 -2.694751671219679581e-02 -1.749865168571143950e-02 -5.774823378626880825e-03 -2.244269701322174505e-03 -3.988999948224553060e-02 -2.340998179887876160e-02 -3.325095300442408586e-02 -6.414697051110605786e-02 7.088422621395734646e-02 -1.927835141608538055e-02 -1.379782563544566451e-02 -2.073931446645091090e-02 -6.164845263907800521e-02 -7.829446578145561608e-02 6.876548970854078069e-02 -6.504912362215062305e-02
-1.726056066187569779e-02 -2.407492983099953840e-02 5.530198400042762169e-02 -7.423265392279608521e-02 -3.749744224527586361e-03 -2.164149599199147525e-02 6.964901290247262067e-02 -2.478871480190538920e-02 -4.812169277322325689e-02 3.326263305189085685e-03 2.177602802810008065e-02 -2.983412680809445841e-02 -5.978621483368151690e-02 3.734647133617042397e-02 -4.826081352270702313e-02 2.093545078776415380e-02 -7.477238014353597417e-02 2.678661226910996132e-02 -1.238093642020736407e-02 -1.330707849574391984e-02 5.950297178921818558e-04 -4.548968073496897219e-02 5.827520036922640562e-02 -7.089014497860939013e-02 8.085194716284947736e-02
7.397898207369053847e-02 -7.435792708341361357e-02 8.530369395117079478e-02 6.247181641114183531e-02 6.128265944524808120e-03 4.295594895837930027e-02 -2.799860996402252916e-02 9.472612365112056954e-03 -8.076991925479952428e-02 3.570907728736773951e-03 2.929994504320379556e-02 5.277525844656559550e-02 8.304185157872330525e-02 6.931511384163160060e-03 5.586227812509356183e-02 6.275839244408602802e-02 -3.879844322365755271e-02 7.820282653452745314e-02 2.785730560473427542e-02 7.947782937136646519e-02 -6.292460256257365048e-02 5.822419948243613697e-02 2.592645718459907211e-02 -4.934997063089594654e-02 4.679954622770326339e-02
2.537216547384636700e-02 -7.638520067050066920e-02 2.397233626379974281e-02 -6.192764243123285300e-02 -3.565777883092172140e-02 -1.604444229366280839e-02 1.279472177715246239e-02 -8.171569886007178096e-02 1.312697963928238787e-02 -7.806153994346747005e-02 4.195617374449414627e-03 -2.000159020088046469e-02 -5.350582672760814673e-02 -7.564526658193765352e-04 -8.584466459453224396e-02 -6.503503426444820490e-02 -5.004903704422660610e-02 7.391337553265882321e-02 6.426679452665363945e-02 8.542113312063824571e-02 4.107148389396349242e-02 6.670526699217739497e-02 -3.583113822858460806e-03 4.037294639367446092e-02 -4.332676112417742365e-02
-2.057013889575326493e-02 3.878489990022547518e-02 -5.593788419027866110e-02 3.022060998157527489e-02 3.893028999242374721e-02 -1.626762789590475988e-02 -2.796902442707738246e-02 3.922955538410209664e-02 2.990529070544090118e-02 2.709322714911645280e-02 -2.935426535466666847e-02 -5.034301770748614985e-02 2.827415359299921549e-02 -7.885261505405995186e-02 7.088513661399412080e-03 -2.704924716008846874e-02 -7.089291310677518776e-02 4.502288735796260155e-02 -2.925132872536595485e-02 -2.347593745214250627e-02 1.367044060200299505e-02 -4.982112837377865311e-02 4.584790124273489809e-02 5.711419629966764389e-02 4.991032047418582362e-02
-7.699805144367938281e-03 3.661035312861136981e-02 -8.178747307092276708e-02 -3.424314734062322563e-03 4.358275991886036149e-02 6.820359407791336259e-02 1.331276732280482766e-02 3.370324178525854752e-03 -4.645650739299399951e-02 6.045186379150115086e-02 3.523924761388870508e-02 2.519890824299088339e-02 2.365702766314931038e-02 8.025396452685872040e-02 4.583726389629157183e-02 6.114256349503650878e-02 1.462302314442516515e-02 -4.146645492578336645e-02 -5.383873131991623318e-04 -5.213730350972199667e-02 5.906521418129408174e-02 -1.432154586805413354e-02 -7.218303875963728855e-02 3.979441050499678278e-02 8.354846689579635555e-02
-6.536336000389779410e-02 6.339460832277545033e-02 3.200467093876765978e-03 -3.586265831162817330e-02 -7.095240741947164698e-02 1.634111457909803722e-02 5.410535242482056306e-03 -3.948480019580466460e-03 1.570010155562930054e-02 -6.484106099481951047e-02 -6.829947178112022454e-02 7.334509806643847718e-02 -2.537057748207501712e-02 -3.435803330622971830e-02 -2.407358249165035546e-02 -3.618402215771967384e-02 4.058327221691636344e-02 -4.123858417159404627e-02 -7.230316270386280553e-02 4.397171023299641102e-02 -6.063531918328180642e-02 2.419040972152763924e-02 -3.939189872460058944e-02 1.374746482727781660e-02 -2.438168663223875404e-02
-6.935022232152728006e-02 -6.902064628506410227e-02 -5.813593212231740748e-02 -3.904012302804860113e-02 -7.261749655594604280e-02 -2.056187216819660435e-02 -6.109854121294423096e-02 -7.260648112896710138e-02 1.400396575190715476e-02 6.523786539285168773e-02 -6.103423124659845822e-02 -6.810791183784166425e-02 -3.718656800292286652e-02 6.695938435678512601e-02 7.133200972672458506e-02 -2.566595641794879729e-02 -2.474392216503099040e-03 8.511581368889183097e-02 1.149436593772493187e-03 -7.439359650004237490e-03 -1.675820261061077010e-02 1.904301015088546989e-02 -2.222982212592865270e-02 -7.709920125962617388e-02 4.064099956943577341e-02
-8.323789081942678525e-02 -2.096764137529256999e-02 2.033317438253488818e-02 2.048738003234140681e-02 -5.343329976287290728e-02 -3.932193011717624587e-02 -9.065727824190281114e-03 -1.108995377615551448e-02 6.290196983241257145e-02 -5.169237420196801103e-02 7.316151639030361864e-02 -4.791381486021954739e-02 5.115568156945489442e-02 -4.305110072171303842e-02 5.791328114246536984e-02 -7.117957036551333938e-02 -1.204081394458658694e-02 5.785947858973476687e-02 -2.517353340237600545e-02 -6.118741542979705406e-02 2.510736930173557147e-02 -5.000500275308152748e-02 -2.586602776658975672e-02 -5.523069885274432822e-02 -6.694971701779953155e-02
-5.895863247893118331e-02 3.326653735311289883e-02 4.452112308929335321e-02 7.468472984759828674e-03 -4.746027554430928136e-02 1.700783766925763330e-02 4.688099878704997392e-02 4.434724105174116249e-02 4.500658206831360808e-02 7.292344411905135604e-02 -7.226913712057901618e-02 -7.261150482068379208e-02 6.435696904543621033e-02 -7.948706373659375490e-02 7.100541496276434328e-02 -6.460938747337852117e-02 7.974779601211333391e-02 3.471292918259380467e-02 -3.664052181916916534e-02 -3.111307625503957879e-03 -2.949397106258720008e-02 5.808461783102926435e-02 -5.235936710992545456e-02 6.893309410911573065e-02 -6.593288428343505037e-02
-3.337221282925404570e-02 -2.573758028892360328e-02 8.450134577231503685e-02 2.877783459020961943e-02 -7.727750884953395183e-02 9.582993232276697596e-03 7.461518993113920584e-02 1.404733878232788946e-02 3.543842720435213828e-03 6.973780418879747811e-02 -2.022556556620175305e-02 -5.562313151938067662e-02 -5.023375706859387058e-02 1.230349216917730505e-02 4.057158772740811908e-02 5.641654492655795439e-02 7.043156469537538433e-02 -5.208459883352165032e-02 5.293516131445276385e-02 -6.026287547594684837e-03 5.008482751905021790e-02 -7.831771557273652096e-02 5.695624532134328788e-02 2.511556762047472292e-03 -1.167875143761565142e-02
-7.303581322196543713e-02 8.437291829019899492e-02 4.296829131833103388e-02 -8.552893352967780305e-02 -3.510673453696547958e-02 -2.877084250215061756e-02 -4.726011605594625242e-02 3.606820048410720042e-03 2.174261094409126252e-02 -3.206707070835521090e-02 1.649474752031747371e-02 -6.225790249236909900e-03 -3.014846863834983598e-02 -7.597947127176803150e-02 -2.501770688548412766e-02 1.008391220653655738e-02 -1.833073338730054069e-02 6.801486726426216045e-02 -7.105810152640498756e-02 2.322985437799294367e-02 1.114660653679197359e-02 3.193012514273760316e-02 2.389618461016443807e-03 -5.114436850761543141e-02 8.097050176702523527e-02
1.409443526806993668e-03 -1.256556621099923221e-02 -3.679015620542459147e-02 -1.501463753689026570e-02 -8.217233000183611635e-02 3.432121256879484827e-02 -6.740418315676283134e-02 -3.705878320938865711e-02 -2.855008928799977405e-02 3.265254012213795326e-02 -6.769376462858092691e-03 -3.983326238929654067e-02 2.551092760569131923e-02 -3.659408842310749727e-02 6.457795853467064584e-02 -3.623973967804978991e-02 -6.573669893748990134e-02 -8.436183286749929233e-02 -4.819830744165584657e-02 3.591572217265252571e-03 -6.693870380630541350e-02 -4.400390468077282347e-02 8.400045765369038020e-02 -4.406729683064048754e-03 -5.583527472186995688e-02
-5.541093823354478753e-02 -6.339602477130788782e-02 2.741695153884484218e-02 -5.885386876467356421e-02 2.017520055996358322e-02 -1.159603093096715082e-02 -5.627703912284074544e-02 5.702000813526830053e-02 -4.379397929594113642e-02 8.502783746259350017e-02 6.382146273469298248e-02 4.222235572061387027e-02 -8.599645122945892561e-02 -2.273359291667548243e-02 5.578303920893861595e-02 5.329192538231885407e-02 -8.749011222793763587e-03 -1.572067304113181421e-02 2.977850750680560710e-02 -2.384304139713342915e-02 -1.891713650001129038e-02 3.179381829239778801e-02 -7.431586136718908164e-02 5.601750206337144378e-02 -3.739380477636168598e-02
2.220962878295481419e-02 3.567950718843507230e-02 -6.103750404207502339e-03 5.543259846774885313e-02 -1.647230466915400315e-02 -3.850800311115851193e-02 4.267814151230903130e-02 -3.373242003928208360e-02 -2.039652558667509608e-02 7.661627138753757116e-02 -6.254289325607780003e-02 7.511827377444094123e-02 1.124991123870553063e-02 -8.317006559457010284e-03 6.578327462362727751e-02 6.593969897104723366e-02 -2.819317273035140507e-03 -5.642866752130878960e-02 6.691070098202428484e-02 2.798244270777490439e-02 7.518858720950559460e-02 6.289975225576849294e-02 4.894094459778416256e-02 3.497029385592039658e-02 7.476020830371188364e-02
2.983136569039887553e-02 -2.458053241866808153e-02 6.280051032636792263e-02 -5.821712362228417814e-02 4.378468112766510656e-02 -7.797512749052493142e-03 -3.416439609773163494e-02 8.345823464211382658e-02 2.634676277343269216e-02 -7.216015673560201293e-02 -5.461060996889927077e-02 3.933690107478814840e-02 -3.372155713316997427e-02 1.520319271639142961e-02 1.576355550301779263e-02 -2.790122801342722128e-02 -1.036003277235228448e-02 8.353936594857652720e-02 7.793648253332897957e-02 8.320030067157652143e-02 -3.326632441613798421e-03 -5.615160462046050321e-02 -8.171153211550694073e-02 -6.418212594192156117e-02 -5.362560055476288390e-02
-6.161745409739342871e-02 6.727822632989755025e-02 -2.408170625087024605e-02 7.990111799953888982e-02 6.164686695356613733e-02 -4.362911103169785781e-02 2.118676175074637666e-02 -7.807817659814574041e-02 -6.335430115650064753e-02 -2.454105332139266266e-02 -1.470000352079612292e-02 1.188183566201463787e-02 -2.264729723738138911e-02 -1.199761385609778410e-03 5.984372013473655827e-02 -2.680592495664596911e-02 4.599555940323584585e-02 8.764944395735404722e-03 8.197099481079971051e-02 2.068963445470689555e-02 3.084223814435147620e-02 -5.172337976642291807e-02 -7.687360099496422239e-02 -3.015052809327074812e-02 5.595101054293116771e-03
-2.321763788076429066e-02 -6.479145799236313286e-02 3.872225238967456212e-02 3.722195839462102973e-02 3.460120849558352696e-02 -7.348276396546593592e-02 -4.508466205741728378e-02 -6.753140814888725085e-02 1.283244535219742362e-02 -1.079397005582344998e-02 8.472335327583963016e-02 -1.721192947577715113e-02 -5.971719018853999944e-02 -5.995143494687859426e-02 5.042449953789386596e-02 3.723483726339103794e-02 3.164328808203948490e-02 2.368814580879051446e-02 8.114043939575973918e-02 2.655378142633885077e-03 -5.071930281887924996e-02 -9.866226998592431477e-03 3.098748975869264344e-02 -2.193423091526180979e-02 -6.442524180408427947e-02
7.570164031625163659e-02 1.671783708054477499e-02 -4.179425542958011691e-02 2.711121495241631749e-02 4.085305717810489012e-02 -3.017481757568158621e-03 5.642859071994917736e-02 -1.244453634095603681e-02 2.988236728041401835e-02 -3.648326755542617011e-02 -8.515097311459358942e-02 -1.343209055237450794e-02 4.112910836160339062e-02 -6.434119187557285624e-02 6.282453405682515701e-02 5.148851156132822071e-02 -8.096465925544320263e-02 5.073310210953638905e-02 -3.964238639994673019e-02 -5.891075219300597604e-02 -4.466510876395414498e-02 -1.236278985828148484e-02 -7.305870089785709842e-02 -4.139837009038371818e-02 6.639615466824890996e-03
3.093992882904399166e-02 6.924644492404792573e-02 4.664687399179828081e-02 -2.968155567187440863e-02 -5.706561675650328319e-02 -2.258985005089345077e-02 -2.663731920948622656e-02 3.944567907774555737e-02 6.669950357826695542e-02 2.395666030436257449e-02 -8.273593414825605730e-02 3.962457535054893232e-02 -8.231724484323456326e-02 1.817382469795777999e-02 1.098944671741538572e-02 2.121785252406791986e-02 4.231825370389741270e-02 -2.866910450306599245e-02 3.409816465249679990e-02 -1.901097953931962098e-02 5.694016308377938818e-02 -6.774089465950651479e-02 -2.414291717479330121e-02 5.126993094395607131e-02 -7.275703647769100196e-03
-7.962976981494129802e-02 -3.199847581671951685e-02 -1.972610640112269081e-02 4.663093493059490557e-02 -6.311462289786676227e-02 7.307071741164847256e-02 -4.835409787674818313e-03 -8.524822455032186885e-02 -2.637542516767317144e-02 5.943209524824723949e-02 -7.710814053551021119e-02 8.857011970163526648e-02 7.477367760106415351e-02 -3.453422503889665846e-02 2.512489043219455140e-02 1.896973103045238029e-02 -5.872752089813763898e-02 2.039448161439863516e-02 -1.108589838687399796e-03 -9.824702129412771559e-03 3.221286917069856974e-03 -1.921607211007671581e-02 1.981121858250440085e-02 4.416300003883724679e-02 -8.562040512262589220e-02
5.788185829306218000e-02 4.413590016567874030e-02 -3.669105562418734177e-03 -1.545563257946811625e-02 6.276069980640221202e-02 -4.390750157847684437e-02 -3.656775580583639107e-02 1.612480974902174083e-02 -8.251920628916610892e-03 -7.175976849454797357e-02 1.333675174942318235e-02 5.392977973267321090e-02 3.200265276495951883e-02 -2.975931404889601076e-02 2.477402200637439465e-03 -7.628970235192806908e-05 -3.362216921416265325e-02 7.676615050066420975e-02 6.284438087838402354e-02 1.834995426142389113e-02 -1.988368878728509828e-02 -7.776270613693979372e-02 -3.139298704462579331e-02 6.099620099732699224e-02 -1.914406029896394482e-02
-9.153910533732451116e-02 8.418944806905606648e-02 -5.973264584893548529e-02 -5.970138547204949589e-03 -2.518318788422284002e-02 -5.126871767123093726e-02 1.256675667472497912e-02 5.770580168276306932e-02 9.261739446828766431e-03 -4.820775490499985133e-02 2.521124727712049929e-02 3.945108566261904676e-02 2.677286378037723250e-02 2.296011697959666337e-03 3.604178531344864878e-02 -5.888889671965515105e-02 3.101119408322180332e-02 2.443426306356476924e-03 7.593410879980080908e-02 -6.938100496191453026e-02 -2.003798829082777816e-02 4.123442376651232505e-02 -6.801136081446754189e-02 -3.077954814389937191e-02 2.602477185233737292e-02
6.152865115304666926e-02 4.879304341789345717e-02 -8.888383602436616959e-02 1.952705769509160277e-03 2.867623515540680158e-03 -2.864591130258772531e-02 2.462311488783921337e-02 2.840805714808154053e-02 -1.411814593348681250e-02 1.700313080743258605e-03 5.176140510891583807e-02 -2.211827297385225016e-02 6.188563782337112851e-02 -7.804824832962642400e-02 5.535471763199463491e-02 2.778160755620230626e-02 -5.825559608926212524e-02 6.218763161274754731e-02 -5.315181283168955717e-02 -5.185957035999533282e-02 -8.385466620333581478e-02 3.343668418043779789e-02 -3.389828299753385593e-02 -6.240955374258223831e-02 1.714581324634564807e-02
-9.297031811910642929e-02 1.576472602069300000e-03 -3.566706228511523635e-02 -8.375665110777617828e-02 -5.042217281591251238e-02 -3.813350269823213845e-02 5.664295263901785588e-02 -3.119580828525675073e-02 -6.604453186696813971e-02 6.440324337567836233e-02 -1.393470285543001175e-02 6.891280649140994752e-02 5.558467545281092076e-02 -6.515433612350267356e-02 3.225024661991959113e-02 5.343110836635006633e-02 -2.982962570007478137e-02 1.282442771435088683e-02 7.171496149413886245e-02 7.558576088414081795e-02 4.835953326519930318e-02 -8.515633160400402912e-02 8.128758136772165632e-02 -8.145379741898194081e-02 -1.935945440634025908e-03
-7.927147114520256832e-02 -1.540995900063194500e-02 -8.033083096983199139e-03 8.226724855528304292e-02 4.886545310366575967e-02 3.546519157438424857e-02 -5.801762950363594656e-02 8.117229774703864364e-02 -2.472963263750141763e-02 -7.926172675059871275e-02 -2.518082558674738028e-02 2.477475180389959730e-02 2.649166957076449884e-03 4.140860831870173814e-02 -8.782511215335021826e-02 6.410892654823142391e-03 1.944505259353873985e-02 -6.888121165997798494e-03 7.787825200000482451e-02 -3.364455142673651589e-02 -2.802074237719701794e-02 8.519473490612393396e-02 7.648644486951075572e-02 -2.473414192156397733e-03 6.427547280869427837e-02
7.099771719511821511e-02 -4.377509410792081862e-02 -3.348851304176432564e-02 1.982033012580860371e-02 3.246773777570202690e-02 3.285593623983659728e-02 -2.991404107733509898e-02 -4.542499128401990965e-02 -5.460695312352307346e-02 4.429825339417699931e-02 -5.054760940511397738e-02 -4.061644711068267827e-02 -8.186646410376402505e-02 -4.609573652995564708e-02 -7.376930271841264375e-02 5.772363825002312099e-02 2.042770692910627923e-03 3.656473895810487956e-02 -3.345460561804047134e-02 7.203010278808619563e-03 -5.450064419642051267e-02 4.828188728654691370e-02 8.353992886231133286e-02 2.365095146410544150e-02 -2.306605852024058365e-02
6.850728772364791941e-02 4.746441353739358493e-02 4.488727143443625722e-02 8.566309093548195308e-02 7.058241681104719667e-02 5.290372753276227635e-02 -8.473315934588426801e-02 -2.096026340599590337e-02 -4.889068024012840907e-02 -7.931682069901577203e-02 3.008625548658734258e-02 7.597183406794494331e-04 4.556742134603032623e-02 -8.305065287259004447e-02 2.905408138398092935e-02 -6.022070655149563273e-02 -7.679891268764571510e-02 -5.342358151890466700e-02 7.376584391583433480e-03 -8.548127805984771788e-02 -3.157307393245167848e-02 -6.558769871983058386e-02 -3.376581640193342809e-02 2.401372897402980280e-02 2.426833098595645652e-02
4.405675585478902034e-02 5.002158710494092331e-02 1.005254168460032425e-02 -5.143792816890919301e-02 -2.832694247715158986e-02 6.251985246212474201e-02 -4.820409768634235231e-02 -1.749414474363982300e-02 4.425571934381346967e-02 7.528208169949007766e-02 1.183373781652678411e-02 2.159642712372836226e-02 4.474311290837656822e-03 -8.527418088449362221e-02 6.130831892139508577e-02 -2.829665735390617456e-02 7.937634215260660694e-04 1.329541613855612231e-02 6.959853873323169904e-02 7.113195422937729218e-02 8.340949494396460162e-02 -5.813105011855332349e-02 2.539922788581025145e-02 -5.615341882378135918e-02 5.557456981447699701e-02
-6.279217006182404026e-02 -4.669026609271401292e-03 3.313509108305618539e-02 -2.610499180641268936e-03 4.082422222015203578e-02 -4.151693755361006433e-02 3.023466181868619471e-02 4.802174526371753849e-02 -5.227478357128926417e-02 -6.818336236049572785e-02 7.513859828325765954e-03 -8.111974742771663194e-02 6.021250186343676120e-02 -6.939033509919739773e-02 2.651612383753810739e-02 -2.040023190405574824e-02 7.234599687614610974e-02 -2.284338506540589328e-02 3.832748853954014243e-03 3.210023078125460311e-02 7.146688298343714663e-02 -3.086132354444615089e-02 7.442025109833333429e-02 -8.238502999533060811e-02 -7.927959469016467031e-02
-6.898378667576812728e-02 -4.212391031411821807e-02 4.212874197595841558e-02 -9.126102960034939218e-03 -5.695004963321736308e-02 -3.772494609920075403e-02 1.263349744173309155e-02 -2.680963173684633091e-02 -4.078504652591054269e-03 2.873171477539902471e-03 7.358441239764547392e-02 -4.239154706096003727e-02 -1.797694814531635224e-02 4.476100379245933486e-02 6.286822333881086911e-02 -7.929134057639131150e-02 -5.690820603855186594e-02 2.251497693174500311e-03 -2.657821815240296245e-02 6.890931476836620329e-02 4.174182223187360152e-02 -6.294357481169730872e-02 3.945184582939464946e-02 -2.831142780323278943e-02 7.693526552673739249e-02
-1.462872005546384836e-02 9.903941424552688451e-04 2.397197475424059018e-02 -6.500831046352557874e-02 7.018994214324481007e-02 2.105335825394375263e-02 6.049302732283143302e-02 -4.970063107748144693e-02 -1.065285994108606735e-02 2.603785668043248624e-02 5.313853670088140857e-02 -4.869294978222228620e-02 4.024549445011808141e-02 2.946672185921186612e-02 2.851732575174418735e-02 -5.047350603016726583e-02 4.330800251723633532e-02 6.526034570753456651e-03 -4.278048146865075230e-02 7.851728088081097456e-02 -6.162432137512845187e-02 -2.047692571417405669e-02 -7.971509547796952477e-02 4.881677764746217285e-02 1.564565261165742861e-03
2.444914269183623076e-02 1.654961431750556419e-02 -1.686340752927047507e-02 -7.762078632773058984e-02 -7.300082139124455805e-02 -1.419929406584428261e-02 -1.883290991518202844e-05 -4.193786237904489900e-02 -2.892231107540572596e-02 -5.899879411898007603e-02 -1.736125241149705234e-02 -7.651817051152326292e-03 -5.263358613146086606e-02 -4.610961953374155542e-02 4.379246342112880913e-02 -7.030665363482316299e-02 -7.711002172132405685e-02 6.633333537081735620e-02 -3.235652474181604371e-02 -8.933064771163358106e-03 -5.071461288362139747e-02 8.383372319216809976e-02 -3.682512564139162059e-02 2.952141176743893272e-02 -3.041852698152481410e-02
1.930262575277597037e-02 -5.978664466233418739e-02 -4.770792228130434770e-02 2.256890312376168273e-02 8.580661993238188068e-02 5.785927108463558011e-02 3.223968775056008929e-02 -2.031340802559276904e-02 2.654063924414858111e-02 -7.120203451092702029e-02 7.841043955058722703e-02 2.100197975733059108e-02 3.669161569423402824e-02 4.527231814140446342e-02 6.025007505261038843e-02 4.883896885056336623e-02 6.828459444362829089e-02 -8.133684356551271200e-02 5.289606118665270140e-02 5.974118954721881203e-02 5.075571089515980294e-02 -8.215059114343017943e-02 -4.588526637072776887e-02 -4.020808330554838383e-02 4.618426918180630614e-02
2.553275360125532856e-02 -4.432820388752919949e-02 -3.052876016301252216e-02 -8.494830189648865104e-02 -5.532857925336819721e-02 4.441470447019187084e-02 -7.941259227224505002e-02 -5.003962949250222170e-02 6.159521140991976174e-02 -3.959278178687745259e-02 -2.415143496793309419e-02 -7.053425194052768965e-02 5.746510157012145459e-02 -1.800144479210492865e-02 3.365917261372008973e-02 -5.322116545382823277e-02 4.805547159260979695e-02 -1.209981470621206145e-02 -6.696533370164549359e-02 -2.359780992863746985e-02 5.218725650861039123e-03 -4.688776284808571226e-02 -2.841360783768372839e-02 -2.783118211380764678e-02 5.502760947765476807e-02
-6.916875429235533335e-02 2.858049889885473649e-02 -7.674612854307064080e-02 -4.056459641458329962e-02 -2.137212281358505384e-02 -6.813846205764126363e-02 7.917028660391407791e-02 4.636443293482293837e-02 -1.656688140921379337e-02 -4.787010220591223636e-02 -8.260689670933327178e-02 3.644478388663094370e-03 -6.226582874900840614e-03 5.114643073814166552e-02 2.159866367230321715e-02 -6.058262707262244973e-02 1.258013864620617650e-02 -2.102054696131117062e-02 -5.736484680855179208e-02 8.055918942512378667e-02 -1.321668688821496518e-02 5.780031005981935144e-02 -5.937664573087022418e-02 2.869818394755972724e-02 6.850256960311291998e-02
6.051015896526494575e-02 6.780984788470091618e-02 3.818416253499565260e-02 3.201416853211799807e-02 -4.821858302417710018e-02 6.140636352651580865e-02 7.447907970164437119e-02 -6.905268823508485532e-02 5.696300576196568211e-02 4.574549572605764169e-02 -6.954659846009454693e-02 5.150489756357833071e-02 -4.317368265264382582e-02 8.192733911964193705e-02 -4.703251783826705584e-02 1.621633569921442086e-02 -6.112277684706791947e-02 7.641582302670889282e-02 -1.475669238287745377e-02 -5.660245628367065185e-02 4.942580499854444531e-02 5.356341722649114734e-02 -6.139129584889203156e-02 8.437984159819165997e-02 5.245514912714786815e-02
-3.397494619115819237e-02 8.234772932122580436e-02 -8.599869963168056686e-02 3.737601652576134914e-02 -5.576315659696544358e-02 -2.060199223763541088e-02 -7.546273229560429563e-02 2.924981493610013736e-02 8.187077806623914433e-02 -1.372974569839216334e-02 3.792156982226729811e-02 -5.998222570102213630e-02 -8.525528026521625446e-02 -9.725323247517856165e-03 3.890770581830903241e-02 5.261832430768205102e-03 -7.056788145750567121e-02 -5.614379028004430616e-02 -5.986393102446724290e-02 -8.483883268652073206e-02 -1.138188174420161347e-02 -5.156604965269979274e-02 3.557751765013551781e-02 3.538591861205330619e-02 3.742713095807091023e-02
5.262783722105473377e-02 7.305202814029397584e-02 3.202877328601658278e-03 -7.380195991973838299e-02 4.041467237589829037e-02 -6.771326105290148556e-02 8.039218195237433917e-02 4.426921572626171114e-02 -6.257341984777402277e-02 3.205924485596380047e-02 -2.118090729020594143e-02 -7.298242422482731362e-02 3.719125861883550849e-02 -3.410378585710039517e-02 -3.923071242217399807e-02 2.890891628736671354e-02 8.895562943294729741e-03 1.566527866269095889e-02 -4.895936257228166583e-02 4.311520033320797446e-02 -3.123388400866599496e-02 -6.989261802171577165e-02 6.652608665220931250e-02 2.966244537865620964e-02 -8.037758103967827805e-02
-9.310800813441906867e-03 -8.269439116758869890e-02 1.315269637250628468e-02 -5.282892494671589251e-02 6.655451882780630268e-02 3.341045368783778641e-02 7.181970066728771140e-02 -4.582034238700119499e-02 1.825292889753780262e-02 5.985045070400991929e-02 -8.389960020987675959e-02 -6.294506031684195257e-02 -8.038464471310589887e-02 5.939559016789446727e-02 7.185012783198284347e-02 -7.520514593573772444e-02 -5.465024884320295734e-02 8.414285215177653987e-03 5.336617567907682436e-02 -7.369846781602477914e-02 3.625511855184308102e-02 -7.304024627914706969e-02 -8.234973722465042945e-02 5.000350493163891602e-02 1.168798006608914863e-02
1.717828003020809707e-02 -6.793395801482786378e-02 8.243655141009209597e-02 -6.030280167681066616e-02 1.623169892101078654e-04 -1.969432150420165166e-03 -2.837876970687415110e-02 4.748188736167555102e-02 -6.895753506459771642e-02 2.716201021060695841e-03 -2.105159014825708566e-02 -1.667429403287059089e-02 -1.534792891551809042e-02 -3.243100332135136904e-02 7.615439222877284919e-02 4.191503556707956019e-02 6.726236271756651230e-02 -4.198028448999228945e-02 4.817584853133968087e-02 6.657224416813910250e-02 2.969483342091574357e-02 -5.948913098025739032e-02 6.894138446057220850e-03 -8.313808000531870690e-02 5.672589199271879656e-02
-2.378669281350303741e-02 -8.118076029145702976e-02 -1.808754570214862398e-02 -7.823724530976339242e-02 5.375677242969555125e-02 -4.495365381208683841e-02 8.210704308902555537e-03 1.667963989506112549e-02 -6.810838193228312132e-02 6.698574510764036816e-02 -4.601444211866097950e-02 1.608668026975207388e-02 -4.285572910192607388e-02 4.343499230356552554e-02 -6.427678305643177992e-02 -2.082862968668311790e-02 7.373245966550977248e-02 8.575469900039067728e-02 -2.146771448558416895e-02 -3.733677708688358521e-02 -3.982149856842950864e-02 7.531880284292366556e-02 8.270043589917674964e-02 3.166064762695351004e-02 6.683786434333956195e-02
-7.088973911568326181e-02 -7.599940582041936343e-02 -4.915644085637949079e-02 2.787776294813309325e-02 4.403715370798786527e-02 -3.661422067123201729e-02 -8.422790781400815718e-02 -2.445278473972358618e-02 2.295019643244288962e-02 1.110743338534323811e-02 7.783957834651610008e-02 -6.175782257670892061e-02 6.310664598443328777e-02 6.770823472090911621e-02 -1.793099379661392337e-02 -8.237323410521860123e-02 -6.360115297663135325e-02 -7.013366768676153329e-02 -6.469712151831946700e-02 1.806350247047289886e-02 6.993579575709323731e-03 6.719077305687597146e-02 1.840501579640361346e-02 -7.753271686080524805e-02 6.476468067777582660e-02
-6.656014612021488031e-02 7.624829361650879711e-02 2.465111868889946142e-02 4.469208173916085214e-03 -5.138217215614573896e-02 5.616823646092976297e-02 1.417797619547911565e-02 -4.074177593424251065e-02 -3.034419114951666593e-02 -7.317768185125088365e-02 -5.325383169922907499e-04 6.842599692787541821e-02 -7.052514978510036892e-02 -7.259916822659287505e-02 6.053486501025596989e-02 -6.401324401065369707e-02 -4.957053299343434222e-02 4.721019386851493110e-02 2.779020068601207455e-02 -5.398634918751776118e-02 -1.057074742146819034e-02 8.412757934535976256e-02 6.468761353494713318e-02 7.242796909901660918e-02 -5.759562441770312707e-02
7.419206156920311879e-02 -5.463515211208218314e-02 -9.147070387471049890e-02 1.445343806275454362e-02 7.475375228755909429e-02 -1.933915290410229137e-02 -3.378113302538392204e-02 -4.207303711707007648e-02 -5.841798320911970738e-02 -3.134079943291011999e-02 -3.294772428563243899e-02 5.447258636769664042e-02 2.474530060066100143e-02 -6.965736040227929471e-02 3.063525797682515803e-02 -8.854936888359757341e-02 -6.126220856562999278e-03 3.696215097775117087e-02 2.957285715397536818e-02 -5.949576961200703923e-02 -5.205941243626971415e-02 3.950824512336128386e-02 -7.648279336906380066e-02 -7.767301649480410318e-03 5.317933363223600191e-02
1.422175948764123864e-02 6.759069677161108625e-02 -1.002816375417093196e-02 -3.571553291792790852e-02 1.335874772754143923e-02 -3.447720618853193641e-02 2.790256795167450274e-02 -4.914393905374268845e-02 -5.812004462916121189e-02 -5.945708945400433182e-02 1.730383365967385137e-02 -1.614428122456237555e-02 3.771085591567786138e-02 -5.912072843246165416e-02 -5.655905502962240566e-03 3.389005535008701719e-02 -1.394037368047529833e-03 -4.864427912205167293e-02 6.058381657977602447e-02 -9.635983960209105678e-03 -1.302417174731920410e-02 4.732670121252815360e-02 -8.292667376680878943e-02 6.243794952914880764e-02 -6.610210263360680183e-02
-9.780113626586199593e-02 -6.471889890194927608e-02 -8.812660682684682334e-02 8.547863120615924182e-02 -1.706056295171049300e-02 7.810664887784191102e-02 7.026933032285491432e-02 -9.554242353247865971e-03 6.460945613289788281e-02 7.007202574651695548e-02 6.134057544717946842e-02 -3.612698116335136267e-02 -4.697250199016434445e-03 -4.673583132560414632e-02 6.910985126414356805e-02 5.486816290721395484e-02 -6.266308575506644718e-02 3.675537053427096329e-02 -5.681877311043571216e-02 2.741287494720331952e-02 8.582298867723002489e-02 2.283497300333570817e-02 4.206141347485470999e-02 3.408586542509334932e-02 -3.301857734425050345e-02
-3.214499037057242260e-03 -5.053181448974135292e-02 -3.449812391637149117e-02 -1.406235452219991439e-02 1.373071709484004373e-02 3.482268955123331983e-02 1.120951336207809228e-02 -6.826931500363221661e-02 -3.005697342550198159e-02 1.100376591731262385e-02 -9.204919285875461099e-03 8.780346062685812081e-02 -5.885604836643063692e-02 6.435829355412855945e-02 -1.824245295327752217e-02 -1.024850988318584399e-01 1.866011373873940199e-02 -3.360525498762954172e-02 -2.859295336570414833e-02 -5.982661488387765875e-02 4.001022055455505377e-02 2.780733608034804613e-02 4.577874294421268447e-02 -2.423754982116193765e-02 -7.785086400987042965e-02
4.895438429869839597e-03 -3.142904379691326133e-02 -1.004073522900220256e-01 7.542240505762837222e-02 5.244286765003625811e-02 3.638627642232655085e-02 -2.806347239223212081e-02 5.105991824125777345e-02 -5.605374183576845859e-02 -3.958987603377957937e-02 -7.909670844975111303e-02 6.205984601016616142e-02 -5.671259477739393901e-02 4.263500560848006160e-02 -5.356538143379106082e-02 -2.211426739313072584e-02 -2.303398643275123003e-02 1.822196980319749915e-02 -5.442201445982466218e-02 4.021434048500911566e-03 -2.002783570983176706e-02 -7.965582215246219677e-02 -7.127244648138954253e-02 -2.641499124602890783e-02 3.817287277731729739e-02
3.809298521080102529e-02 -3.019541337180189217e-02 4.115176210072591517e-02 8.213239022516026500e-02 1.179259979393659785e-02 -4.259053078629057576e-02 8.448699834451561808e-02 -3.998672241401644845e-02 2.286688192099853648e-02 4.076489037232970680e-02 1.848053894787842670e-03 3.536757206224623584e-02 -2.276284014882856699e-02 -4.700749368288635599e-02 -7.634138659875484845e-02 -6.363249391801117927e-02 3.803088771902891907e-02 1.065960876263401663e-01 -1.334199959064208060e-02 2.269727696026584834e-02 7.381166718128252813e-02 -7.023644651032718948e-03 7.581339273022612291e-02 -3.976707004882256563e-02 -1.484909495591323417e-02
-1.954514278326205737e-02 -1.279880875524082480e-02 -2.391091794560233630e-02 -8.107776801249073906e-02 6.566517147989282821e-02 2.945336316919315231e-02 7.561203940313386031e-03 5.471591152065301972e-02 3.962194104621365870e-02 1.543935760398287317e-02 4.810381529203971995e-02 -3.957133969241828642e-02 -8.717659867456173731e-03 -1.720082971646202594e-02 5.994211281442941852e-02 2.905209210456619062e-02 3.403300785430559555e-02 -1.730972798990435555e-03 -5.329593093328465273e-03 -6.291046183682087733e-02 -3.906965996025096172e-02 -3.378629477106973034e-02 -6.454961246875191849e-02 -2.672196515716866293e-03 5.272035848999777341e-02
-5.671584028317960824e-02 3.506858022445247334e-03 -1.148745171781559299e-01 -1.938479070838225807e-03 -1.086591872163547752e-02 3.682940459706442182e-02 7.005643565276452323e-02 8.211100309569696609e-02 3.998390125755144076e-02 5.128478096532492619e-02 -2.361293130045795732e-02 5.270996859349826730e-02 2.063517460048418239e-02 9.975896507141344266e-03 -1.998368741871540955e-02 3.278178108633984789e-02 7.042831300160773411e-02 9.363094584357163630e-02 7.337527774774536826e-02 4.725136246332369006e-02 -3.118585088399070462e-02 -7.922750999814896777e-02 3.754908228906673334e-02 6.535385149918394865e-02 -1.508291292900123919e-02
-2.073096762728222908e-02 7.947209125892579218e-02 -1.021319035313192763e-01 6.381135368716796263e-02 -2.663584966836291326e-02 6.517325779536237151e-02 7.675123192667665517e-02 2.499198962020999365e-02 3.867156605135198526e-03 -1.002176806465627547e-02 -6.668246379291231651e-02 4.408153030190366944e-02 5.421545501180574655e-02 -5.110237807664418791e-02 -8.837672039366696597e-02 -7.298688137018341342e-03 -2.765610691863605239e-02 -3.875569061494067713e-02 -1.258526367911466139e-02 4.301443753583789747e-02 8.238245876545391422e-02 4.961038822122340770e-03 5.746570123299305638e-02 -1.983273369090173335e-02 -7.444997235970511607e-02
-1.792695027034467078e-02 1.994770104033187150e-02 -1.097405979310149410e-01 4.674492422618561904e-02 -3.277669005768668511e-03 3.413294695773638754e-02 -3.389910849660265207e-02 1.520573608835141567e-02 8.481637189477300720e-02 4.381579147561870391e-02 -3.080573117572723771e-02 4.761343501326825017e-02 9.680914113330520848e-03 6.226419618583409199e-02 9.647100620448670338e-03 -1.973181135239001835e-02 7.834632157150056217e-03 8.548030920163454671e-02 9.180714578714506413e-03 -2.313421265924324802e-02 6.458685342871736679e-02 -3.295437770714017278e-02 -3.961393179151031368e-02 4.035485820758027975e-02 9.520946038653794324e-03
-1.136039774763444171e-02 -7.262879075478172186e-02 1.752255457974931027e-02 -7.229712397090463927e-02 3.985888603830455013e-02 1.976802204693703033e-02 5.936534735745749997e-02 1.468335949020713530e-02 -5.007755771361876301e-02 4.263316727597675493e-02 -3.212380602246808770e-02 -6.150721760367180990e-02 5.430865367141789884e-02 -9.798851156601860735e-02 -3.145425953001718816e-02 5.763367201033815085e-02 1.423290986428638006e-03 -5.444702675152487958e-02 -4.691837266461675558e-03 1.987242282112993211e-02 -4.283728009164535638e-02 -8.514100368353696990e-02 -5.666749552488994229e-02 3.436518919721934240e-02 -4.891365238182345671e-02
1.304537698184362118e-02 -4.682360370476145589e-02 4.134560394942552591e-02 1.848308669993590017e-02 4.091524841453222927e-02 -3.458647849502593727e-03 -3.428889202352166515e-02 -6.108382866690473603e-03 5.199951555184958302e-02 -1.806729545702860304e-02 -7.961688132994278536e-03 4.324405829976631782e-02 9.157707647055559480e-03 3.120025805308073233e-02 -3.292994223030694216e-03 -1.000427902504393146e-01 -8.220841885924481951e-02 9.819657678761276043e-02 -1.412954000997042846e-02 6.338819796204787915e-02 -3.101317028729953015e-03 3.742072616743906399e-02 -1.863654706134393671e-02 -6.379141313413343173e-02 -7.833482649695316935e-02
-3.598333760332758646e-02 -2.285791026860757580e-02 -9.504704161718122157e-02 1.407985943292288170e-02 3.685581485209316055e-02 5.519138177081431978e-02 -6.822997226293875395e-02 2.569339325486279246e-02 -6.848045502416838515e-02 3.088968626648837257e-02 5.359065886432633208e-02 4.264845366471565515e-03 8.750098724555256668e-02 -9.008176698763005474e-02 -3.219700400296717641e-02 2.970701712938987604e-02 -1.373847308424494193e-02 -4.440432208643006751e-03 8.620047305650158434e-03 2.362345205972653239e-02 -5.602983291146434314e-02 5.749279719866225852e-02 -3.664602896655230757e-02 -3.129721274611067111e-02 1.603185898612348795e-02
2.020279959451116644e-02 1.783033717223904760e-02 -5.076181467944313602e-02 3.515732017828530204e-02 2.781697216749702550e-02 -5.639466183031436458e-02 -7.579801019773781123e-02 2.326697830362865066e-02 2.451166283917171132e-02 -6.368902567355577693e-02 3.087935697113392344e-02 5.934710540013009988e-02 -6.974733013931828929e-02 -3.100595511161411549e-02 -4.415297774821694970e-02 -2.035056761939834508e-02 2.618209703763472312e-02 -1.917729793436601105e-02 3.117671170571796255e-02 -2.976174704317787259e-02 1.306190385046681474e-02 5.809192777279691827e-02 -7.299236374514871117e-02 5.801461235509322925e-03 5.317690222633732894e-02
-7.330243738267663844e-02 -1.290598738971477331e-03 4.525615216496694029e-03 1.936474833375818883e-02 4.076136270841116543e-02 -3.524481176976745206e-02 7.200704601538228389e-02 1.762072624520620578e-02 -5.495579868465150231e-02 -4.582526572342630194e-02 -1.306100505545981436e-02 4.798293119392253725e-02 9.426887219148055719e-03 5.574356203132784654e-02 2.670294032255625394e-02 6.426196397791271442e-02 -2.597274448342468730e-03 -6.553631566202254566e-02 -7.975856192056614280e-02 7.755949790450984704e-02 -1.303082941968580072e-02 -3.171376241281937541e-02 1.254650589037229272e-02 7.296171474651649835e-02 3.911569337827589671e-02
5.485759348445894135e-02 7.172685083003946423e-03 6.258139552294438024e-02 5.350260156913189818e-02 4.044488158593639859e-02 -1.681718322070251820e-02 -1.722354824473959142e-02 2.850686955938937575e-02 -5.162289241012898294e-02 -3.240585406102734767e-02 -3.463773430477212062e-02 8.575413970633982697e-02 -4.696786065899615642e-02 7.403547877874819272e-02 7.541014298919705705e-02 -6.363017868386992848e-02 1.167074045258268853e-03 2.597647688775096136e-02 3.915896808499244597e-02 -5.246016867390253881e-05 2.720344480472391621e-02 -8.264207293307977709e-02 -2.358501894122138134e-02 -4.416878312116775951e-02 -6.801739514503053752e-02
8.222453793540240863e-02 5.183964815650746877e-02 5.204388160550351555e-02 1.320486354338761166e-02 -8.434299484100460376e-02 -2.236711944116506062e-02 -8.177647651709775423e-02 -2.011911979073392753e-02 8.298284747997894395e-02 2.714691247839923910e-02 5.079036468545074234e-02 9.028773810616185641e-03 -7.216204497069682311e-02 -5.658458316361904272e-02 -1.767706531912959303e-02 -8.329853335547676707e-02 2.555753876270229572e-03 -1.548483010591131422e-02 -6.986178350012735294e-02 1.325077076039772074e-02 4.630711176345343044e-02 -5.689368228678998857e-02 4.664514883719241001e-02 3.061591667253378210e-02 3.944553518738863618e-02
-3.277267025912762588e-02 8.528985625756464739e-02 4.157199618081112297e-02 -8.513111077334817312e-02 7.322115503205568754e-02 -5.293877949257308480e-02 -4.566506732825789672e-02 8.509977550766746612e-02 5.758227141776915171e-03 -8.456749826472657883e-02 6.237773577725712337e-02 2.965539639767536539e-02 7.541433659194517192e-02 -3.590023940196641894e-02 1.012440228796396280e-02 3.598479501951944159e-02 -3.514017311855326120e-02 8.201229786006834777e-02 -7.824234675259947314e-02 -8.123972915422834895e-02 -7.365796854841724639e-02 -5.881341466025158393e-02 -7.319105558841206005e-02 -6.730649498261915675e-04 6.228226322666341463e-02
3.314919675668259735e-02 2.189478532714818348e-02 7.413102433465464103e-02 -2.067885294835780652e-02 -1.949804468280202929e-02 3.432524894208284494e-02 2.409478414577390093e-02 -2.125510047858039653e-02 6.629367869717660289e-02 2.120367935374792290e-02 1.549628194500486666e-02 -7.689076388531199124e-02 5.617096755682421394e-03 -4.489025927400178140e-03 -1.430616632349793194e-03 -2.973037221966740029e-02 -1.986722122509416988e-02 -4.284140765118826105e-02 -3.770846302169963971e-02 -6.465775369501769454e-03 -1.256602608376788943e-02 -7.563019525761219275e-02 -9.419729633815432379e-03 1.203321052114454670e-02 -6.957181253860404702e-02
-5.286481210609286080e-02 4.860492601782366584e-02 5.790187565551575821e-02 -6.052454815269225907e-03 7.834781818352747063e-02 4.341741232075688184e-03 2.221309619819741843e-03 -8.550338465426410295e-03 -1.208596848604474860e-02 -6.125479511239928510e-02 1.717573921559342742e-02 -4.330635400632149024e-02 -3.870336204890502396e-02 3.690137571417416440e-02 6.145368135253194419e-02 2.446191086183865937e-03 -3.673152401607383821e-02 2.895083465547268475e-02 2.671825610525088712e-02 4.063625459269006035e-02 3.028208915639291066e-02 -5.909514982795837507e-02 7.624104212977379780e-02 -2.791747839219457100e-02 3.068728917253774058e-02
4.831471409218297125e-02 5.379310076004568258e-02 -6.085746565404919622e-02 -4.423438784218891584e-02 -5.939663187163627019e-03 -3.783512840624686513e-02 3.126956134851553715e-02 2.233946709447463819e-02 7.977471532051941261e-02 6.527501804780416750e-02 -5.878212883931742405e-02 2.654471083426466343e-02 4.070251672501441764e-02 1.186536411986843960e-02 -3.022489070280201529e-02 -1.625925430262024213e-02 5.632314987752141261e-02 -4.874454531840147903e-02 -5.827826502384641366e-02 3.837863272947837634e-02 -4.266189569159305195e-02 -2.867640116675291423e-02 -6.328192961450655740e-02 8.180263985603207499e-02 2.958211575508810226e-02
-2.281868645694758516e-02 4.865282022281582769e-02 -7.171053605999828939e-02 -6.827177878192483562e-02 -1.804327669738831769e-03 -7.875272372197021642e-02 2.431307924959268466e-02 -2.251522953706827992e-02 7.289056415022523994e-02 -3.637204288656441242e-02 9.438209710436138442e-04 2.403913320156203515e-02 -2.419300624000296149e-02 -7.253632058299633312e-02 3.746313489569197408e-02 -8.324056804672459731e-02 -5.492948600730652303e-02 5.338104870799632862e-02 -2.333013192887349596e-02 2.823722505196833710e-02 -3.256080063856293255e-02 8.595492583986258373e-03 -5.664405908968017656e-02 -7.372632674562937249e-03 3.229838344669106603e-02
6.442378442282313544e-02 -3.759370738523475086e-02 2.142095120080741988e-02 -2.309565317202988757e-02 2.957323083323841473e-02 -5.799393258625385600e-02 6.562057340436329433e-02 -4.360259348026255394e-02 2.764258589716187334e-02 3.964353892877901797e-02 3.545796119798234891e-02 -1.362836134215213331e-02 4.200622170172944175e-02 1.924502392117800539e-02 5.747964574005592214e-02 1.846313343041874888e-02 3.760716966978006059e-02 2.119941321955100266e-02 5.369234134672019876e-02 5.160794564357430031e-02 7.982671591058612681e-02 3.175223252122021805e-02 -3.672110221336248592e-02 -5.071406167598647985e-02 -2.587600909216223807e-03
6.592613506018561026e-03 2.997105584187024357e-02 -7.217398746197364878e-02 6.937090406090747063e-02 -3.176687764159096677e-02 -5.828140121348855673e-02 6.989665592034820241e-02 1.053994446512846773e-02 -4.100084012373301362e-02 -2.233380672382254822e-02 -7.735392892621495604e-03 7.040452353618061043e-02 -8.095088505884945329e-02 7.311013601868689149e-02 5.661302897641141973e-02 8.040322855232504007e-02 3.774191055514402454e-02 3.932367861117781749e-02 7.799578006835138945e-03 6.594407534102039725e-02 -5.808618637861501233e-03 -2.838442673137436464e-02 -3.211843244963281246e-02 5.154466983116425677e-02 4.090606984486624270e-02
5.946703155040229671e-02 -1.325960435609110791e-03 -1.749544688396656791e-02 8.412902989406527421e-02 4.781835510002856171e-02 2.083246827673324378e-02 6.675041595906343328e-02 3.297445406191641063e-03 7.183535045895342308e-02 2.836453451257243616e-02 2.383013846682179027e-02 -3.609600411831925121e-02 -1.325120665320122203e-02 8.698490463079709689e-03 -3.489511915168289069e-02 4.385876483984336473e-03 -1.779769887812500048e-02 3.036548930722051537e-04 3.016974546869707202e-02 4.865468845789826247e-02 3.145585378437067842e-02 3.097276678528652558e-02 4.066500240701995117e-02 -5.349465487096987520e-02 5.825763466583619432e-02
-2.232788531419097749e-02 -5.102515729932599609e-02 3.828951920391530494e-03 -2.871716562714332274e-02 3.297392272519446971e-02 1.480569059334244097e-02 7.234986455822849105e-02 -8.422297351887486627e-02 5.677571250136093095e-02 1.166380851756044536e-02 3.461658076105615656e-02 3.020518109369904614e-02 -4.902284898034407062e-02 6.531701648384340142e-02 1.045005079462293582e-02 6.925534266757858715e-02 2.756471274352538525e-02 -5.185276097762127334e-02 4.379736975536962368e-02 -1.447770776156552357e-03 -7.498905180170810369e-02 -6.744230631766830186e-02 1.598659555729047693e-02 8.212798951791909496e-03 -6.224700575801977304e-02
4.314973778992206577e-02 -1.567830939511498031e-02 3.812597066965202341e-02 -5.784143385928659786e-02 5.962220992990534263e-02 -1.897661886500531456e-02 5.207098478363805100e-02 6.889962164943237710e-02 -1.427197761126607241e-02 1.306658894545119354e-02 5.863799799082202585e-02 -8.118345712347624366e-02 7.099606947220267472e-02 9.058490506147656718e-02 6.528076694260304472e-03 -7.610236086676709644e-02 -2.894398358923617673e-02 8.294618777320104941e-02 -3.973141747054423356e-02 4.493577890428065297e-02 -1.389879743387568631e-02 1.608378415750519319e-02 -1.232163133572563782e-02 5.894514867852233657e-03 3.238191344234180730e-02
-8.296197439888167158e-02 -6.938906353921797665e-02 6.264018317312702866e-02 5.485380273623195746e-02 -6.756247752237798908e-03 -1.729031557759358809e-02 -1.150468913562953041e-02 -6.472067671893742824e-02 -3.404288100817945417e-02 5.446721001312727906e-02 -3.814335824553165971e-02 1.202020011351963985e-02 -8.437321229044385251e-02 2.702963140479474821e-02 3.427138560228878972e-02 -5.399987028647361149e-04 5.246761357874257792e-02 -9.686987783454478144e-04 -7.457808866849885941e-03 2.313870362707002790e-02 6.320618786790103971e-02 -6.510501662786011279e-02 -1.472547190277861615e-02 -6.488884275089536191e-02 -3.526952002441105516e-02
-4.593940805474552164e-02 -7.459112539867278346e-02 1.990912250934513737e-04 -6.378189188598311354e-02 -8.703314193326698589e-03 -1.438681119193151864e-02 4.015570436436347035e-02 -3.822391784128083975e-02 -5.353864890558324846e-02 3.812047214732819378e-02 -5.890994839843779335e-02 -3.786341843679292413e-02 -5.449336491471601374e-02 8.577377488704797381e-02 2.171888355419556463e-05 -9.316830174094514749e-02 -5.955612762602669613e-02 2.578422452298900422e-02 5.722446203752349497e-02 6.924679478275283517e-02 6.658632628229750605e-02 1.282401159270206426e-02 1.631123140784210626e-02 -7.408966779657953639e-02 -8.587280887280324126e-02
-9.373830265824948521e-03 -8.299247017414042304e-02 -1.308719350361995694e-02 3.987189321235292544e-02 9.258517404965420361e-02 -4.695311837485274115e-02 -1.456213545541538285e-02 5.917883227391311507e-02 5.144154027020850575e-04 -4.071234712374714737e-02 -2.244334251574020556e-02 -8.651421643924737601e-04 3.032900577867132449e-02 5.882937271588103978e-02 7.708202801595293030e-02 4.448243652861455510e-02 -7.204638682625173762e-02 8.802984151539081439e-03 -9.348273096358066317e-03 8.158974477504457590e-02 -2.261681626232148190e-02 -4.002453796967404831e-02 -2.645247903211753963e-04 -7.834171705939199648e-02 -5.910949934610176815e-02
5.305885476720602345e-02 2.560355877568660718e-02 2.462679939427549897e-02 3.808651803919355094e-02 1.780254650880136458e-02 -3.694476604080827037e-02 1.553342214352896981e-02 -4.149749292947067791e-02 1.852400486142465746e-02 -1.145071568594377941e-02 -5.335103660197570291e-02 -5.534402972536831000e-02 3.448796550261905985e-02 4.603150013877453650e-02 -4.737085925748526355e-02 -4.558953118556925699e-03 2.688908774340058316e-02 1.078018693040907333e-01 -4.790854019562718058e-02 -2.478050389606386780e-02 -8.390406221192303615e-02 3.130416216892877024e-02 -6.865895347316845754e-02 2.488673929790572825e-04 -3.080213298736824562e-02
4.705065443032119266e-02 -1.124933873969451020e-01 -7.487652688944695933e-02 -4.824978808906491001e-02 4.507939968666055397e-02 5.416521053844139399e-02 5.462719983946692781e-02 3.991631367996202606e-02 -3.633888489861647475e-02 4.960757936582280148e-02 -6.627630663520378551e-02 7.201394485742421137e-02 -1.124664616456028457e-02 -1.119468657802675723e-02 6.931274511274358729e-02 -3.753007645271159987e-02 -6.090706487063058533e-02 -8.147754938551302756e-03 6.704080640201089125e-02 3.718022134306375043e-02 -8.209404705751614795e-02 -1.540955025590525461e-02 -8.284747183688892513e-02 -2.329164103577126624e-02 8.614642121724325544e-03
-2.465894987535757754e-02 9.994444935981656661e-03 -1.773490761527672654e-02 5.191079117334681386e-02 -8.018893834740676782e-03 8.431620731848397943e-02 7.311512777627399151e-02 -4.747864816205764338e-02 8.856792299218955999e-02 2.723838237819146881e-03 5.156262321335957494e-02 -6.951380575885143798e-02 -1.737387567409741027e-02 3.420865571489243445e-02 7.400594745286898091e-02 -4.087243120578442149e-03 4.466756092856551119e-03 4.322988531322556616e-02 9.095124114779674918e-02 2.796047596009473488e-02 1.529167548006859188e-02 -5.220009716622746321e-02 5.181995520924546211e-02 3.226135069236678310e-02 -7.551640266502970822e-02
-6.915769821484153701e-02 5.488993380640337996e-03 3.396445563323616246e-02 -4.123634182068598719e-02 7.355570911717773663e-02 -4.409067450318316511e-02 6.057761100185261871e-02 3.472284044624310284e-02 -6.874140604849923730e-02 -6.977570235348398708e-02 7.551253203291788396e-02 -5.426041354855884458e-02 2.003548373958040710e-02 9.907576177301037623e-02 2.246079797869543222e-03 -7.926906206049633141e-02 -3.559313700502794720e-02 3.296971207807878473e-02 3.319280350682772551e-02 5.408192160452526299e-03 6.475964652488748474e-02 6.592596354772242706e-02 1.364146185932461897e-02 5.730941154274107885e-02 2.699715855553770638e-02
4.047720394259885640e-02 -3.363140610003853559e-02 -7.243353630049466363e-02 4.664696447934562479e-02 6.937680295881546149e-04 3.342377924227992424e-03 1.551790612530384340e-02 -1.660561208106362333e-02 7.603154557544952730e-02 1.528944238613774535e-02 -7.238445623201933410e-02 2.576223254417916650e-02 1.038433659513708467e-02 -2.138337652197103839e-02 -2.281162193632333898e-03 7.271642132713497346e-03 1.450503942782916094e-03 6.414732448294314937e-02 -2.353354524344204723e-02 -4.883173219317681751e-02 -3.087113142341066027e-02 -5.906198860589834121e-02 -4.397319420412116459e-02 -3.682322415278296845e-02 -2.856083297907757376e-02
-9.919183794995983794e-03 7.064926519310178732e-02 -1.211709439584957027e-02 1.288257470640410789e-02 5.926301968793589586e-02 8.559848531346016254e-02 -2.473918902171608203e-02 -8.066746070266027357e-02 9.374525817661020360e-03 4.198310851951443656e-03 -6.833654138530009803e-02 -6.741893841875917391e-05 6.247502331118005847e-02 8.626040105035688577e-02 4.365723773310502959e-02 -4.681394798402092189e-02 4.020924124955442547e-02 2.703158414827764797e-02 -4.743600803598417570e-02 -1.304515179696706662e-02 5.362439224019374326e-04 6.179599474521663832e-02 1.068751028358008552e-02 5.095292237070128682e-02 -5.349589897257411159e-02
4.595786255605137371e-02 -3.998247537011196534e-02 1.008796694062093777e-03 -2.800296598772056278e-02 -2.605970414960786206e-03 -9.115830154110507455e-03 2.630049629248258636e-02 3.508794959557596377e-02 -1.899466364002894495e-02 -9.786533038058455730e-03 7.110617814679820459e-02 1.151267248860790918e-02 -5.292433491522772343e-02 -1.680659829782254339e-02 -2.835967404892128507e-02 -1.048380558803369694e-02 -2.956590231239431682e-02 5.720097657049903056e-02 -4.022245959743478080e-03 2.661088217516814625e-02 8.679677273917436875e-02 8.286252840700333855e-02 -2.378791798827353809e-02 6.033019697872116227e-02 -9.674863664689760390e-03
-4.281940667640985604e-02 6.839582090901953626e-02 -4.973195868410357212e-02 -5.626298678742155945e-02 -6.830578142661454522e-02 1.962364686835903899e-02 6.941817473782982417e-02 2.942972658160907667e-02 1.034197770989337961e-01 -1.251286487240238152e-02 -5.666504890369020858e-02 3.454219826283923961e-02 -3.633716734544647359e-02 3.948925322144374722e-02 2.165498880312811611e-02 -2.955152278829863838e-02 -1.994484682946081819e-02 1.067921184138481694e-01 -4.298024829358466567e-03 -1.110487004470738946e-03 3.401620151577275375e-02 4.253155653307059275e-02 1.457177033516841337e-02 -6.731876350532325914e-02 -4.006222991816316137e-02
-7.919376471071092050e-02 -6.238521552339817283e-02 -1.068474134683464888e-01 -1.726789385905892066e-02 4.498297840690693855e-02 7.030885213220952612e-02 4.908574034312473272e-02 8.756849226517697538e-02 -6.668566293493331104e-03 -1.257288162389392887e-02 -1.152969622642687278e-02 -7.377451006255478227e-02 3.521924248074353309e-02 -4.065508281383472394e-02 6.247469246326957382e-03 4.270108038909486980e-02 -7.942877969208889111e-02 -1.408889123143154329e-02 -5.011582542652715661e-02 -4.703679724030929155e-02 -2.449975498292841086e-02 4.544965987842794486e-02 -5.378515542125327648e-02 2.228787292536698814e-02 -4.558958630251120497e-03
7.182888134478024322e-03 -4.045314548761799051e-02 8.953593129296995995e-03 -6.949820649148519269e-02 1.393465024299703507e-03 -3.014661251666882896e-02 -5.537994016792632118e-02 -4.137231179551282417e-02 -3.463584917585683931e-02 4.173295088342401926e-02 -2.818787578097131999e-02 -2.203556615899201002e-02 7.273755241483945144e-02 6.212392038781903297e-02 -2.553189998653366058e-02 -1.332183116177958204e-02 6.713714769108387881e-02 3.898672351801688724e-02 -4.435684159354080780e-02 -6.650560944947127295e-02 -6.390991796240069744e-02 5.712025036194328526e-02 2.610673031702073071e-02 1.992639379395758081e-02 1.509525616987356447e-03
3.058433665921394401e-02 -1.747961068643076599e-02 2.515209577410454020e-02 -1.241535206272698956e-02 7.673023168498119273e-02 -6.066389971278029342e-02 -7.746693896476775087e-02 1.865046751589128152e-02 9.128865544703032575e-02 -6.703752242795846250e-02 7.276059753598294877e-02 -5.853177577208938664e-02 -3.636037204769621001e-02 -5.898437271140331145e-02 3.360860679374109983e-02 5.919957955046069309e-02 7.696450504635840573e-03 -5.843842480472692669e-02 4.344490887576140520e-02 -8.217925646025891692e-03 -3.102636592361572576e-02 -6.080900752870636861e-02 7.832759059467847562e-02 -7.958701609762212914e-02 9.176001804715371024e-02
-3.383355069163128392e-02 -4.202937371433094343e-02 2.320865224263999119e-02 4.242816618310493726e-02 2.276861071429493732e-02 -8.091783370540314713e-02 -6.320083375485258115e-03 -7.876567304452920804e-02 -3.920869670225669151e-02 8.201559371788434694e-02 -1.358218872181156736e-02 1.852572232630214112e-04 -5.282910982188020188e-02 -1.855351913911336761e-02 -9.748938386414156276e-03 -6.506074523358479356e-02 -8.450758077184150618e-02 2.239531492782229766e-02 -1.267494360512832867e-02 1.720758727494808155e-02 -6.143086905034907119e-02 8.146014408776360016e-02 -2.692611397168803711e-02 -5.855519263797483165e-02 -6.608891703123168093e-02
4.525383862091490045e-02 -4.632757314766936668e-02 5.361084339310427660e-02 7.253642704360548088e-02 7.732260239294638793e-02 2.601137281403558682e-02 1.789252432954944322e-02 -2.927141698794382199e-02 2.758722661351014141e-02 -2.956387128135110412e-02 7.480219811639141070e-03 -4.748065338076468828e-03 -7.924591099133138083e-02 -2.893928291110842849e-02 4.836001050313007595e-03 -6.337290212089954911e-02 -5.981578775897138101e-02 5.787644152475555220e-02 6.257412933440881231e-02 -8.463584249909125723e-02 4.713739671214784571e-02 -3.838444620578154026e-02 5.726693118988322034e-02 -8.229084259352292818e-02 -3.739994523652696856e-02
1.656589062397319581e-02 6.691409256864151722e-02 -6.051541861848536131e-05 -5.895166679357515677e-02 1.674731130650547462e-02 -4.243077512094765164e-02 3.535294559331211839e-02 -3.490370162077340715e-02 -4.442361395505189069e-03 3.888795018697521061e-02 8.435872279663693407e-02 -2.728459093503551522e-02 -5.193281494654718861e-02 2.996087300006297638e-02 -6.525441763229998526e-02 -7.469092169407591519e-02 8.191221148775622296e-02 5.681072905078055763e-02 4.304713057971527868e-02 2.703498007821085111e-02 -3.167180067969006807e-02 2.146013722090349407e-02 3.120519540100214623e-02 5.856835718063185120e-02 6.706200127512333686e-02
6.188794474485542763e-02 -4.683783405654472903e-02 -2.942701220556879008e-02 -6.703976163542613859e-03 3.399414709134312290e-02 4.362402753900453123e-02 1.424190836764473340e-02 5.353456895890821438e-02 -7.269984716190389107e-02 2.447740940215921771e-02 3.905612797313866291e-02 6.587422393585574965e-02 6.167041460507967365e-02 2.171418912893921874e-02 5.735564655449336413e-02 -8.348113584977188972e-02 1.068944136534210471e-02 -7.417418150587488934e-02 -4.824853765279348700e-02 6.281138754920244371e-02 -1.325299925077344336e-02 -6.559678902138141310e-02 4.702118421823409111e-02 5.216999238631817026e-02 1.173550559905629960e-02
-6.292358328738717477e-02 1.299682112288929638e-02 -3.197727157510697055e-02 3.712650832586299882e-02 -5.146934957854638892e-02 6.356720902188019162e-02 -4.172793508398705414e-02 1.618629269016806128e-03 7.145975273001858863e-02 -6.844461040837049315e-02 6.410336624720265608e-02 4.112878415865500042e-02 -4.214830827381321060e-02 4.041180675554443234e-03 -6.623986540238421816e-02 1.294886247536539137e-02 -2.071106027789405835e-02 -1.120296231802192684e-02 -3.495156388760790184e-02 6.775244510325190150e-02 3.356847777337613331e-02 6.169591333236737474e-02 1.407111960537694995e-02 6.691569563980734325e-02 -4.615355168344894427e-02
-2.296900770352332949e-02 5.069060283533145805e-02 -1.641581163151279582e-02 -5.891686092872487623e-02 -5.952185535584200715e-02 -5.573587341413623747e-02 3.639511872711032048e-02 7.596540995290967935e-02 4.665498981589193822e-02 5.777568403282157261e-02 -6.699190465129234440e-02 -3.279743804619272146e-02 5.335759199698328001e-03 -5.343399455875610937e-02 -4.214170414307265994e-02 -4.393755009873229200e-02 4.112901175248991070e-02 5.772683235387694040e-02 6.315221473001852992e-02 -5.697099113810073778e-02 2.225989513667406272e-02 -8.191098765668311521e-02 4.825223628893328398e-02 -3.113232889508413606e-02 8.591785982769027663e-02
7.627947419138962626e-02 -6.535322323958205060e-02 -1.518383763427150202e-02 5.818489634224950635e-02 6.119068170753173830e-02 -6.129422609593958293e-02 -5.301358360270250203e-03 -1.602986958958454999e-02 -5.149348268933880146e-02 -8.011519693429530742e-04 6.975889366155620108e-02 -8.314298074472450950e-02 -8.012101164699500511e-02 4.785524337107725790e-02 -4.375248657210232400e-02 -7.884813413476865485e-02 -3.219952198923020648e-02 6.592870156900169920e-02 3.084131450177898803e-02 -7.670866237396013754e-02 4.052543997707573620e-02 6.118723716809963686e-02 8.337007768835953680e-02 -3.359021613098417403e-02 -6.562076306896284794e-02
-1.530431427780018505e-03 4.240760173563558333e-02 -5.263595197038070661e-02 6.299503460813292433e-02 -1.472846951094122780e-02 2.636031257103627068e-03 -7.423556905839501230e-02 2.367557401551811935e-03 4.370925830099180176e-02 7.601700493617150056e-03 3.187947167129653869e-03 -5.059471084907010696e-02 4.180781893615710676e-02 -1.357882456284519035e-02 -7.287639663929577905e-02 4.290431101435800143e-02 -1.885069296384370152e-02 3.605848562283768544e-02 7.102838045559799196e-02 2.296129804202641511e-02 -1.594180702402386851e-03 -3.480428810649211641e-02 4.376091977285033463e-02 -1.894803560550058219e-02 6.047141954731109770e-02
-4.249681453494903033e-02 -2.410878975417527631e-02 8.979032957866282458e-03 -4.770826023010192422e-03 4.928430300903529487e-02 -4.920548302701517607e-02 -3.889921539797159405e-02 5.728423821762653606e-02 2.671588053130250981e-02 6.962847845935424274e-02 7.518067054446976594e-02 -6.334597964736672637e-02 -4.200876772309874996e-02 -5.755940786686157551e-02 -3.870626772054267667e-02 -3.413401989132145570e-02 3.719737959641530173e-02 -5.104379265989685693e-02 6.573380820859221763e-02 2.682096644063028737e-02 -1.053980569929176617e-02 -6.213394998913378264e-02 -8.134237796770998896e-03 -3.797736509598564902e-02 4.696256884840935286e-02
5.164228720932229066e-02 -5.203822534331813132e-02 -3.360636133017351479e-02 -6.618107505088099973e-02 -5.150385711626579571e-02 -6.877867878325806539e-02 5.309201780789579023e-02 4.812832746125014771e-02 5.601413851981274644e-02 6.296988882915470487e-02 4.749522389407064699e-02 8.026651786705563119e-02 -3.094461310639629384e-02 -4.680303972793158074e-02 -2.138008060254070059e-02 6.071860901595464016e-02 1.592756892837445676e-02 -8.497930853114467331e-02 -5.087785595459747706e-02 2.890173061198532400e-02 2.395363496397667075e-02 -6.269377061354790281e-02 -7.964000639881950450e-02 -7.158700084310125333e-02 4.103578307362084482e-02
3.924177749168804991e-02 4.471152324383276255e-02 -2.054738748161061279e-02 7.922935623426946572e-02 2.171744245545829261e-02 -2.616106023422728327e-02 2.295992438750208212e-02 -4.790123933494641606e-02 -7.549691405746536410e-02 -4.312624398990071856e-02 -8.217913612562940950e-02 -1.686991043504494289e-02 -2.103037437412512770e-02 6.233988392884068364e-02 2.674556956747308964e-02 -7.882939770805423574e-02 2.718845094670876289e-02 6.177898220685781872e-02 -5.902931418880009995e-02 -8.515694291058616139e-02 7.901355928728551192e-02 -4.848219151523355808e-02 2.827355479725084803e-02 6.942544702287055391e-02 -3.173670572329169437e-02
8.930024759170153772e-03 3.884773994759321142e-02 -7.560194164848835219e-02 -3.615652950911158597e-02 5.581764356831088458e-02 3.109400983050960438e-02 7.498320383667239630e-02 4.265878502301240910e-02 -6.368951659819462041e-02 2.708595789104510307e-02 -4.774580430637308248e-02 4.246138793023321312e-02 -1.783002760780860729e-02 -3.702658057743705381e-03 4.545667126384738549e-02 4.801845562467235012e-02 -1.586421121881503166e-02 1.701388344062702146e-02 7.398990555066106700e-02 7.877854385598430376e-02 -6.423659930226502390e-02 4.669093104911493236e-02 -5.001986714191405947e-02 -8.403777837343487378e-02 -8.510140983435543482e-02
4.078760564321145393e-02 -5.652940915592117449e-02 7.746636866559118706e-02 -3.870934482237664565e-02 -3.971422026591851784e-02 4.013199762755015332e-02 -5.663744499872626348e-02 -8.221338366783027818e-02 -1.344975538162363794e-02 1.281867358531059778e-02 5.996663310034843625e-02 -7.247607156103996751e-02 3.025802712370548320e-02 6.965830541020560929e-02 6.084578520170634552e-02 9.476533216339934340e-03 -7.247841088704956580e-02 7.569785860442734826e-02 4.492105867023606786e-02 4.739011338952644169e-03 -7.747224171773163526e-02 1.761974102152694469e-02 -5.873331587633299350e-02 -5.062107365995546782e-02 4.212793198271906625e-02
3.226309205639360522e-02 3.361170979328054198e-02 8.698307400260765765e-02 -2.956347221948349251e-03 -1.100426291401306739e-02 2.625551233539191731e-02 -3.296569265152757278e-02 3.280103039336235843e-02 -4.901603585778716715e-02 9.545364160177369217e-02 -8.586223300076471082e-03 3.783275016841859684e-02 1.389634398670610595e-02 3.932647325868084132e-02 5.027989839645205516e-02 3.291418765700588472e-02 -2.956406822904372733e-02 -4.766043600901855720e-02 -3.730426021482368543e-02 2.611212929559218569e-03 7.205878539327047194e-02 -8.427715019410239594e-03 2.205142934976101615e-02 7.620796893819720141e-02 -8.620258739489539482e-03
-2.823455780049202030e-02 -1.942139951497256350e-02 -7.362120914369450764e-02 -3.965136809122070394e-02 5.062211831552716756e-02 7.860904334752988332e-02 -1.117226719396764625e-03 -2.056036314303219537e-03 2.979483702313446419e-02 -4.883894855470970187e-02 2.074984797716961094e-02 -3.914119100413851471e-02 -1.912356229620812767e-02 -5.304361377969196711e-02 4.894284739977711532e-03 -8.468381893717884246e-02 5.394599865052911170e-02 4.899852449252366758e-03 3.157007763029921060e-02 5.302820126689621744e-02 -6.421278440175449964e-02 5.036444942335519676e-02 7.887661176252520889e-02 -9.654233556349858456e-03 -6.230487201184404383e-02
4.083269530696024413e-02 3.969265954297739041e-02 2.308015453766313480e-02 5.749854085464617404e-02 6.979172110931067263e-02 6.767064019731874880e-02 7.299542927843294393e-02 -7.783612083309930652e-02 6.789917979453734265e-02 -4.204618990649097027e-02 -8.103285937406064232e-02 4.333251001632179578e-02 -4.607953680934942509e-02 1.155524718093414172e-01 -5.214522818576190072e-02 -4.893224341145453737e-02 3.218848535908653413e-02 8.389181312929196166e-02 -4.936157924456038154e-02 4.615996716525379295e-02 -3.702448997450782930e-02 1.831371037001571639e-02 8.123102085616590307e-02 4.627160535598218855e-02 -3.485306352131748581e-02
-1.410284588058493584e-02 -6.919932965984153250e-02 -5.673200554030494863e-02 -6.196431075883421236e-02 -1.592567421422498228e-02 -1.622898165597050357e-02 8.415698358066119045e-02 -3.869907933402692846e-02 -5.800627483290318742e-02 9.388260915614100866e-02 6.721867323083065282e-02 -5.427426177557834880e-02 -9.253127769159789906e-02 1.198768376746654069e-01 3.290229955479823803e-02 -7.332234362973892583e-02 -4.448169395998050057e-02 -1.516846532590430171e-03 4.573687807535796457e-02 -1.269625870886520111e-02 5.191301944800933571e-02 -2.453331758728101095e-02 -8.200764134213361922e-02 6.836952581411153036e-03 4.674687421905234647e-02
1.682980022260364278e-02 1.842704669113684815e-02 9.625845853262378349e-02 -6.246878746855449166e-02 9.814296941937367125e-02 2.159082619828665926e-03 6.840467783544212921e-02 7.802638552638938019e-02 6.358602184117498335e-02 5.356741845868092516e-02 -1.035273222813217625e-02 -1.937481808920723733e-02 3.912565527571781887e-02 -5.695457580377928132e-03 1.826720202992904163e-02 5.991880224419553896e-03 2.444058286988606485e-02 4.400530045031707943e-02 -5.637444934157670451e-02 4.261095142259079677e-02 -5.204118546153008174e-02 -6.127270426140332682e-02 5.480578855037938901e-02 -3.944539103980278932e-02 1.335932521570835398e-02
9.729324870020573945e-03 1.881826872973628786e-03 -2.811099850213540433e-02 -7.656482192384414520e-02 -2.132933257421774486e-03 -2.959976445774800333e-02 3.589345314958818089e-02 1.982294781475747031e-02 -5.063996369203942888e-02 -4.887091802025033717e-03 3.812687738554954020e-02 7.093325138875561375e-02 -3.962789735493778276e-02 -4.007796388128492988e-03 3.904398812970203553e-02 -1.690202092053351944e-03 -3.610825076211367224e-02 -3.771946227761940190e-02 6.734389433596510606e-03 -3.856356676208172463e-02 3.557220361952323495e-02 4.091643422481377329e-02 5.239984918661886454e-02 9.194212214772497227e-02 -7.182235551031199150e-02
-8.939249886666991718e-02 -9.485527306804070191e-02 -3.546928374705612258e-02 1.513284865315825921e-02 5.513889495893597309e-02 3.953927661041347491e-02 2.996817298866253504e-02 -3.710763494247751315e-02 1.904592628898633608e-02 -6.255937787758901469e-02 7.564341460765247604e-02 2.428710452330746714e-02 4.180595721916866014e-02 1.432605266688755652e-01 1.023051531952327980e-01 -8.141578470548660462e-02 -5.994329240395492031e-02 -1.993563656778261917e-02 9.065597186287377776e-03 -5.992052232965755509e-02 1.952480167146290226e-03 -2.471438423205081850e-02 -1.112091955511394087e-02 3.255427469506791405e-02 -1.829260604241396415e-02
-1.629497297964486568e-03 5.250738920571224044e-02 -4.592759723944995348e-02 4.895937862231741766e-02 4.016136663392450706e-02 2.931521882260701428e-02 -1.865482495575337268e-02 -4.610967794031576444e-02 1.628958721789889805e-02 2.138099130984703541e-02 5.854676039010134163e-03 -1.186763342504404579e-02 3.987699617407765296e-02 1.055114616502254854e-01 4.917492973471030565e-02 -2.913902765903607014e-02 -6.575572753433217565e-02 -4.336611482855026040e-02 8.230752150204645456e-02 -1.880215304258789355e-02 2.413899494739419130e-02 -2.108885313008510703e-02 7.694456221964207122e-03 -7.001260477790249848e-02 -5.566314033584665588e-02
